%YAML:1.0
my_svm: !!opencv-ml-svm
   svm_type: C_SVC
   kernel: { type:RBF, gamma:1. }
   C: 10.
   term_criteria: { epsilon:2.2204460492503131e-16, iterations:100000 }
   var_all: 6
   var_count: 6
   class_count: 2
   class_labels: !!opencv-matrix
      rows: 1
      cols: 2
      dt: i
      data: [ -1, 1 ]
   sv_total: 2772
   support_vectors:
      - [ 63., 25., 25., 3969., 625., 625. ]
      - [ 64., 26., 26., 4096., 676., 676. ]
      - [ 187., 102., 103., 34969., 10404., 10609. ]
      - [ 81., 37., 38., 6561., 1369., 1444. ]
      - [ 103., 50., 52., 10609., 2500., 2704. ]
      - [ 161., 89., 91., 25921., 7921., 8281. ]
      - [ 179., 94., 96., 32041., 8836., 9216. ]
      - [ 85., 39., 39., 7225., 1521., 1521. ]
      - [ 85., 36., 37., 7225., 1296., 1369. ]
      - [ 12., 3., 5., 144., 9., 25. ]
      - [ 75., 31., 32., 5625., 961., 1024. ]
      - [ 91., 40., 41., 8281., 1600., 1681. ]
      - [ 80., 36., 37., 6400., 1296., 1369. ]
      - [ 30., 12., 12., 900., 144., 144. ]
      - [ 13., 6., 8., 169., 36., 64. ]
      - [ 76., 33., 34., 5776., 1089., 1156. ]
      - [ 107., 52., 54., 11449., 2704., 2916. ]
      - [ 98., 41., 43., 9604., 1681., 1849. ]
      - [ 94., 40., 39., 8836., 1600., 1521. ]
      - [ 117., 65., 63., 13689., 4225., 3969. ]
      - [ 75., 32., 33., 5625., 1024., 1089. ]
      - [ 98., 45., 46., 9604., 2025., 2116. ]
      - [ 65., 30., 32., 4225., 900., 1024. ]
      - [ 85., 34., 35., 7225., 1156., 1225. ]
      - [ 92., 39., 40., 8464., 1521., 1600. ]
      - [ 97., 44., 45., 9409., 1936., 2025. ]
      - [ 92., 44., 42., 8464., 1936., 1764. ]
      - [ 149., 73., 79., 22201., 5329., 6241. ]
      - [ 100., 43., 45., 10000., 1849., 2025. ]
      - [ 72., 34., 34., 5184., 1156., 1156. ]
      - [ 61., 30., 32., 3721., 900., 1024. ]
      - [ 41., 19., 19., 1681., 361., 361. ]
      - [ 80., 34., 35., 6400., 1156., 1225. ]
      - [ 89., 42., 46., 7921., 1764., 2116. ]
      - [ 98., 44., 43., 9604., 1936., 1849. ]
      - [ 99., 44., 46., 9801., 1936., 2116. ]
      - [ 109., 57., 55., 11881., 3249., 3025. ]
      - [ 32., 15., 16., 1024., 225., 256. ]
      - [ 107., 55., 53., 11449., 3025., 2809. ]
      - [ 145., 73., 73., 21025., 5329., 5329. ]
      - [ 139., 66., 72., 19321., 4356., 5184. ]
      - [ 89., 40., 41., 7921., 1600., 1681. ]
      - [ 52., 24., 25., 2704., 576., 625. ]
      - [ 14., 5., 7., 196., 25., 49. ]
      - [ 71., 31., 31., 5041., 961., 961. ]
      - [ 88., 39., 40., 7744., 1521., 1600. ]
      - [ 66., 31., 33., 4356., 961., 1089. ]
      - [ 79., 35., 36., 6241., 1225., 1296. ]
      - [ 135., 64., 63., 18225., 4096., 3969. ]
      - [ 136., 66., 71., 18496., 4356., 5041. ]
      - [ 92., 41., 42., 8464., 1681., 1764. ]
      - [ 66., 28., 28., 4356., 784., 784. ]
      - [ 69., 29., 29., 4761., 841., 841. ]
      - [ 83., 34., 36., 6889., 1156., 1296. ]
      - [ 144., 71., 77., 20736., 5041., 5929. ]
      - [ 90., 42., 40., 8100., 1764., 1600. ]
      - [ 95., 50., 47., 9025., 2500., 2209. ]
      - [ 50., 23., 24., 2500., 529., 576. ]
      - [ 41., 16., 17., 1681., 256., 289. ]
      - [ 72., 29., 30., 5184., 841., 900. ]
      - [ 67., 29., 29., 4489., 841., 841. ]
      - [ 138., 72., 70., 19044., 5184., 4900. ]
      - [ 126., 60., 65., 15876., 3600., 4225. ]
      - [ 165., 79., 90., 27225., 6241., 8100. ]
      - [ 168., 82., 93., 28224., 6724., 8649. ]
      - [ 127., 61., 65., 16129., 3721., 4225. ]
      - [ 115., 52., 55., 13225., 2704., 3025. ]
      - [ 108., 51., 48., 11664., 2601., 2304. ]
      - [ 99., 46., 47., 9801., 2116., 2209. ]
      - [ 74., 36., 36., 5476., 1296., 1296. ]
      - [ 108., 49., 51., 11664., 2401., 2601. ]
      - [ 84., 40., 41., 7056., 1600., 1681. ]
      - [ 70., 32., 32., 4900., 1024., 1024. ]
      - [ 15., 6., 8., 225., 36., 64. ]
      - [ 81., 35., 36., 6561., 1225., 1296. ]
      - [ 99., 42., 44., 9801., 1764., 1936. ]
      - [ 70., 30., 30., 4900., 900., 900. ]
      - [ 133., 65., 70., 17689., 4225., 4900. ]
      - [ 133., 71., 71., 17689., 5041., 5041. ]
      - [ 98., 43., 45., 9604., 1849., 2025. ]
      - [ 102., 47., 49., 10404., 2209., 2401. ]
      - [ 87., 38., 39., 7569., 1444., 1521. ]
      - [ 87., 36., 38., 7569., 1296., 1444. ]
      - [ 82., 38., 39., 6724., 1444., 1521. ]
      - [ 36., 15., 19., 1296., 225., 361. ]
      - [ 110., 59., 61., 12100., 3481., 3721. ]
      - [ 128., 65., 69., 16384., 4225., 4761. ]
      - [ 107., 50., 52., 11449., 2500., 2704. ]
      - [ 102., 45., 47., 10404., 2025., 2209. ]
      - [ 86., 43., 43., 7396., 1849., 1849. ]
      - [ 118., 66., 64., 13924., 4356., 4096. ]
      - [ 100., 55., 59., 10000., 3025., 3481. ]
      - [ 118., 55., 59., 13924., 3025., 3481. ]
      - [ 72., 31., 34., 5184., 961., 1156. ]
      - [ 89., 36., 37., 7921., 1296., 1369. ]
      - [ 181., 91., 102., 32761., 8281., 10404. ]
      - [ 106., 49., 51., 11236., 2401., 2601. ]
      - [ 78., 35., 35., 6084., 1225., 1225. ]
      - [ 40., 19., 23., 1600., 361., 529. ]
      - [ 86., 35., 36., 7396., 1225., 1296. ]
      - [ 109., 56., 57., 11881., 3136., 3249. ]
      - [ 90., 39., 41., 8100., 1521., 1681. ]
      - [ 83., 37., 37., 6889., 1369., 1369. ]
      - [ 122., 66., 65., 14884., 4356., 4225. ]
      - [ 79., 33., 39., 6241., 1089., 1521. ]
      - [ 101., 44., 46., 10201., 1936., 2116. ]
      - [ 21., 8., 11., 441., 64., 121. ]
      - [ 82., 36., 37., 6724., 1296., 1369. ]
      - [ 97., 48., 49., 9409., 2304., 2401. ]
      - [ 80., 37., 37., 6400., 1369., 1369. ]
      - [ 49., 24., 25., 2401., 576., 625. ]
      - [ 63., 27., 27., 3969., 729., 729. ]
      - [ 109., 59., 57., 11881., 3481., 3249. ]
      - [ 130., 64., 69., 16900., 4096., 4761. ]
      - [ 119., 62., 64., 14161., 3844., 4096. ]
      - [ 94., 43., 45., 8836., 1849., 2025. ]
      - [ 171., 89., 99., 29241., 7921., 9801. ]
      - [ 110., 51., 53., 12100., 2601., 2809. ]
      - [ 75., 33., 30., 5625., 1089., 900. ]
      - [ 79., 35., 35., 6241., 1225., 1225. ]
      - [ 105., 46., 49., 11025., 2116., 2401. ]
      - [ 96., 41., 43., 9216., 1681., 1849. ]
      - [ 107., 48., 50., 11449., 2304., 2500. ]
      - [ 13., 4., 6., 169., 16., 36. ]
      - [ 71., 33., 33., 5041., 1089., 1089. ]
      - [ 119., 63., 62., 14161., 3969., 3844. ]
      - [ 92., 52., 52., 8464., 2704., 2704. ]
      - [ 91., 42., 43., 8281., 1764., 1849. ]
      - [ 80., 37., 38., 6400., 1369., 1444. ]
      - [ 23., 10., 13., 529., 100., 169. ]
      - [ 101., 46., 48., 10201., 2116., 2304. ]
      - [ 114., 52., 55., 12996., 2704., 3025. ]
      - [ 93., 44., 45., 8649., 1936., 2025. ]
      - [ 79., 36., 36., 6241., 1296., 1296. ]
      - [ 104., 56., 54., 10816., 3136., 2916. ]
      - [ 115., 52., 59., 13225., 2704., 3481. ]
      - [ 185., 95., 106., 34225., 9025., 11236. ]
      - [ 33., 16., 23., 1089., 256., 529. ]
      - [ 124., 64., 62., 15376., 4096., 3844. ]
      - [ 82., 36., 36., 6724., 1296., 1296. ]
      - [ 66., 26., 26., 4356., 676., 676. ]
      - [ 87., 47., 47., 7569., 2209., 2209. ]
      - [ 158., 78., 88., 24964., 6084., 7744. ]
      - [ 110., 53., 55., 12100., 2809., 3025. ]
      - [ 113., 54., 56., 12769., 2916., 3136. ]
      - [ 127., 64., 67., 16129., 4096., 4489. ]
      - [ 100., 49., 51., 10000., 2401., 2601. ]
      - [ 107., 50., 53., 11449., 2500., 2809. ]
      - [ 117., 56., 56., 13689., 3136., 3136. ]
      - [ 95., 44., 45., 9025., 1936., 2025. ]
      - [ 80., 38., 35., 6400., 1444., 1225. ]
      - [ 109., 58., 60., 11881., 3364., 3600. ]
      - [ 105., 54., 56., 11025., 2916., 3136. ]
      - [ 135., 67., 72., 18225., 4489., 5184. ]
      - [ 106., 47., 49., 11236., 2209., 2401. ]
      - [ 122., 53., 54., 14884., 2809., 2916. ]
      - [ 36., 16., 22., 1296., 256., 484. ]
      - [ 89., 38., 40., 7921., 1444., 1600. ]
      - [ 131., 64., 72., 17161., 4096., 5184. ]
      - [ 127., 66., 66., 16129., 4356., 4356. ]
      - [ 9., 2., 4., 81., 4., 16. ]
      - [ 66., 30., 30., 4356., 900., 900. ]
      - [ 115., 57., 56., 13225., 3249., 3136. ]
      - [ 96., 45., 46., 9216., 2025., 2116. ]
      - [ 141., 70., 78., 19881., 4900., 6084. ]
      - [ 93., 40., 41., 8649., 1600., 1681. ]
      - [ 75., 35., 35., 5625., 1225., 1225. ]
      - [ 107., 61., 62., 11449., 3721., 3844. ]
      - [ 133., 65., 69., 17689., 4225., 4761. ]
      - [ 76., 36., 36., 5776., 1296., 1296. ]
      - [ 62., 26., 26., 3844., 676., 676. ]
      - [ 56., 23., 25., 3136., 529., 625. ]
      - [ 73., 30., 31., 5329., 900., 961. ]
      - [ 81., 38., 38., 6561., 1444., 1444. ]
      - [ 64., 28., 28., 4096., 784., 784. ]
      - [ 155., 78., 87., 24025., 6084., 7569. ]
      - [ 97., 42., 44., 9409., 1764., 1936. ]
      - [ 119., 56., 60., 14161., 3136., 3600. ]
      - [ 113., 51., 54., 12769., 2601., 2916. ]
      - [ 130., 64., 68., 16900., 4096., 4624. ]
      - [ 133., 72., 72., 17689., 5184., 5184. ]
      - [ 77., 37., 37., 5929., 1369., 1369. ]
      - [ 61., 25., 25., 3721., 625., 625. ]
      - [ 173., 88., 96., 29929., 7744., 9216. ]
      - [ 154., 78., 84., 23716., 6084., 7056. ]
      - [ 125., 59., 63., 15625., 3481., 3969. ]
      - [ 121., 59., 59., 14641., 3481., 3481. ]
      - [ 94., 43., 44., 8836., 1849., 1936. ]
      - [ 138., 69., 77., 19044., 4761., 5929. ]
      - [ 166., 84., 91., 27556., 7056., 8281. ]
      - [ 123., 60., 63., 15129., 3600., 3969. ]
      - [ 35., 17., 22., 1225., 289., 484. ]
      - [ 25., 11., 16., 625., 121., 256. ]
      - [ 149., 75., 81., 22201., 5625., 6561. ]
      - [ 124., 62., 62., 15376., 3844., 3844. ]
      - [ 140., 64., 69., 19600., 4096., 4761. ]
      - [ 140., 67., 72., 19600., 4489., 5184. ]
      - [ 134., 66., 70., 17956., 4356., 4900. ]
      - [ 90., 44., 44., 8100., 1936., 1936. ]
      - [ 65., 27., 27., 4225., 729., 729. ]
      - [ 55., 24., 26., 3025., 576., 676. ]
      - [ 65., 29., 29., 4225., 841., 841. ]
      - [ 136., 66., 70., 18496., 4356., 4900. ]
      - [ 90., 41., 42., 8100., 1681., 1764. ]
      - [ 59., 24., 26., 3481., 576., 676. ]
      - [ 116., 57., 59., 13456., 3249., 3481. ]
      - [ 125., 63., 63., 15625., 3969., 3969. ]
      - [ 146., 72., 77., 21316., 5184., 5929. ]
      - [ 105., 50., 52., 11025., 2500., 2704. ]
      - [ 64., 30., 29., 4096., 900., 841. ]
      - [ 28., 11., 14., 784., 121., 196. ]
      - [ 93., 49., 50., 8649., 2401., 2500. ]
      - [ 131., 61., 66., 17161., 3721., 4356. ]
      - [ 106., 51., 53., 11236., 2601., 2809. ]
      - [ 29., 10., 12., 841., 100., 144. ]
      - [ 96., 43., 45., 9216., 1849., 2025. ]
      - [ 122., 62., 68., 14884., 3844., 4624. ]
      - [ 98., 47., 48., 9604., 2209., 2304. ]
      - [ 118., 56., 59., 13924., 3136., 3481. ]
      - [ 100., 44., 50., 10000., 1936., 2500. ]
      - [ 84., 38., 38., 7056., 1444., 1444. ]
      - [ 27., 13., 18., 729., 169., 324. ]
      - [ 106., 54., 52., 11236., 2916., 2704. ]
      - [ 60., 27., 29., 3600., 729., 841. ]
      - [ 127., 59., 63., 16129., 3481., 3969. ]
      - [ 113., 47., 51., 12769., 2209., 2601. ]
      - [ 129., 61., 65., 16641., 3721., 4225. ]
      - [ 33., 16., 19., 1089., 256., 361. ]
      - [ 36., 18., 23., 1296., 324., 529. ]
      - [ 122., 56., 60., 14884., 3136., 3600. ]
      - [ 76., 31., 37., 5776., 961., 1369. ]
      - [ 83., 39., 40., 6889., 1521., 1600. ]
      - [ 120., 61., 64., 14400., 3721., 4096. ]
      - [ 127., 64., 68., 16129., 4096., 4624. ]
      - [ 83., 40., 40., 6889., 1600., 1600. ]
      - [ 35., 14., 16., 1225., 196., 256. ]
      - [ 55., 22., 24., 3025., 484., 576. ]
      - [ 57., 24., 26., 3249., 576., 676. ]
      - [ 46., 24., 24., 2116., 576., 576. ]
      - [ 63., 28., 30., 3969., 784., 900. ]
      - [ 60., 26., 25., 3600., 676., 625. ]
      - [ 70., 31., 34., 4900., 961., 1156. ]
      - [ 68., 29., 32., 4624., 841., 1024. ]
      - [ 195., 102., 110., 38025., 10404., 12100. ]
      - [ 48., 23., 24., 2304., 529., 576. ]
      - [ 60., 23., 26., 3600., 529., 676. ]
      - [ 63., 26., 29., 3969., 676., 841. ]
      - [ 68., 27., 30., 4624., 729., 900. ]
      - [ 65., 28., 31., 4225., 784., 961. ]
      - [ 141., 71., 75., 19881., 5041., 5625. ]
      - [ 191., 103., 107., 36481., 10609., 11449. ]
      - [ 139., 69., 73., 19321., 4761., 5329. ]
      - [ 99., 45., 44., 9801., 2025., 1936. ]
      - [ 104., 49., 52., 10816., 2401., 2704. ]
      - [ 73., 33., 33., 5329., 1089., 1089. ]
      - [ 33., 17., 22., 1089., 289., 484. ]
      - [ 7., 3., 4., 49., 9., 16. ]
      - [ 91., 47., 48., 8281., 2209., 2304. ]
      - [ 206., 107., 113., 42436., 11449., 12769. ]
      - [ 90., 47., 47., 8100., 2209., 2209. ]
      - [ 37., 18., 20., 1369., 324., 400. ]
      - [ 63., 27., 26., 3969., 729., 676. ]
      - [ 108., 51., 53., 11664., 2601., 2809. ]
      - [ 137., 67., 71., 18769., 4489., 5041. ]
      - [ 166., 92., 91., 27556., 8464., 8281. ]
      - [ 41., 18., 20., 1681., 324., 400. ]
      - [ 84., 46., 46., 7056., 2116., 2116. ]
      - [ 68., 31., 34., 4624., 961., 1156. ]
      - [ 104., 50., 49., 10816., 2500., 2401. ]
      - [ 94., 41., 42., 8836., 1681., 1764. ]
      - [ 86., 37., 38., 7396., 1369., 1444. ]
      - [ 51., 26., 27., 2601., 676., 729. ]
      - [ 103., 48., 50., 10609., 2304., 2500. ]
      - [ 112., 53., 55., 12544., 2809., 3025. ]
      - [ 249., 139., 155., 62001., 19321., 24025. ]
      - [ 40., 21., 23., 1600., 441., 529. ]
      - [ 60., 24., 24., 3600., 576., 576. ]
      - [ 95., 52., 49., 9025., 2704., 2401. ]
      - [ 20., 11., 13., 400., 121., 169. ]
      - [ 60., 24., 23., 3600., 576., 529. ]
      - [ 77., 39., 39., 5929., 1521., 1521. ]
      - [ 59., 26., 28., 3481., 676., 784. ]
      - [ 255., 165., 182., 65025., 27225., 33124. ]
      - [ 222., 118., 128., 49284., 13924., 16384. ]
      - [ 132., 62., 66., 17424., 3844., 4356. ]
      - [ 93., 49., 49., 8649., 2401., 2401. ]
      - [ 68., 33., 35., 4624., 1089., 1225. ]
      - [ 53., 25., 26., 2809., 625., 676. ]
      - [ 38., 17., 19., 1444., 289., 361. ]
      - [ 78., 34., 35., 6084., 1156., 1225. ]
      - [ 48., 21., 22., 2304., 441., 484. ]
      - [ 71., 36., 38., 5041., 1296., 1444. ]
      - [ 118., 55., 58., 13924., 3025., 3364. ]
      - [ 155., 81., 87., 24025., 6561., 7569. ]
      - [ 241., 143., 166., 58081., 20449., 27556. ]
      - [ 238., 128., 140., 56644., 16384., 19600. ]
      - [ 215., 117., 126., 46225., 13689., 15876. ]
      - [ 74., 34., 34., 5476., 1156., 1156. ]
      - [ 70., 35., 37., 4900., 1225., 1369. ]
      - [ 85., 39., 40., 7225., 1521., 1600. ]
      - [ 129., 64., 65., 16641., 4096., 4225. ]
      - [ 92., 49., 46., 8464., 2401., 2116. ]
      - [ 75., 35., 34., 5625., 1225., 1156. ]
      - [ 34., 17., 20., 1156., 289., 400. ]
      - [ 86., 42., 42., 7396., 1764., 1764. ]
      - [ 186., 103., 104., 34596., 10609., 10816. ]
      - [ 108., 52., 51., 11664., 2704., 2601. ]
      - [ 72., 32., 32., 5184., 1024., 1024. ]
      - [ 175., 91., 105., 30625., 8281., 11025. ]
      - [ 81., 41., 40., 6561., 1681., 1600. ]
      - [ 86., 42., 46., 7396., 1764., 2116. ]
      - [ 105., 50., 47., 11025., 2500., 2209. ]
      - [ 149., 76., 81., 22201., 5776., 6561. ]
      - [ 164., 88., 93., 26896., 7744., 8649. ]
      - [ 111., 55., 54., 12321., 3025., 2916. ]
      - [ 47., 20., 18., 2209., 400., 324. ]
      - [ 17., 8., 10., 289., 64., 100. ]
      - [ 165., 85., 88., 27225., 7225., 7744. ]
      - [ 239., 129., 140., 57121., 16641., 19600. ]
      - [ 251., 138., 153., 63001., 19044., 23409. ]
      - [ 108., 54., 53., 11664., 2916., 2809. ]
      - [ 28., 12., 17., 784., 144., 289. ]
      - [ 100., 45., 48., 10000., 2025., 2304. ]
      - [ 213., 116., 130., 45369., 13456., 16900. ]
      - [ 237., 127., 138., 56169., 16129., 19044. ]
      - [ 236., 132., 143., 55696., 17424., 20449. ]
      - [ 37., 19., 19., 1369., 361., 361. ]
      - [ 88., 44., 48., 7744., 1936., 2304. ]
      - [ 150., 76., 81., 22500., 5776., 6561. ]
      - [ 180., 94., 105., 32400., 8836., 11025. ]
      - [ 169., 88., 94., 28561., 7744., 8836. ]
      - [ 178., 93., 100., 31684., 8649., 10000. ]
      - [ 211., 110., 119., 44521., 12100., 14161. ]
      - [ 25., 10., 11., 625., 100., 121. ]
      - [ 106., 57., 58., 11236., 3249., 3364. ]
      - [ 100., 49., 50., 10000., 2401., 2500. ]
      - [ 100., 56., 56., 10000., 3136., 3136. ]
      - [ 101., 55., 55., 10201., 3025., 3025. ]
      - [ 237., 133., 144., 56169., 17689., 20736. ]
      - [ 61., 29., 28., 3721., 841., 784. ]
      - [ 30., 9., 11., 900., 81., 121. ]
      - [ 34., 12., 12., 1156., 144., 144. ]
      - [ 105., 50., 53., 11025., 2500., 2809. ]
      - [ 96., 43., 44., 9216., 1849., 1936. ]
      - [ 166., 85., 92., 27556., 7225., 8464. ]
      - [ 29., 8., 10., 841., 64., 100. ]
      - [ 101., 48., 49., 10201., 2304., 2401. ]
      - [ 197., 108., 123., 38809., 11664., 15129. ]
      - [ 238., 131., 145., 56644., 17161., 21025. ]
      - [ 162., 86., 92., 26244., 7396., 8464. ]
      - [ 108., 48., 46., 11664., 2304., 2116. ]
      - [ 90., 41., 43., 8100., 1681., 1849. ]
      - [ 87., 38., 40., 7569., 1444., 1600. ]
      - [ 74., 39., 41., 5476., 1521., 1681. ]
      - [ 79., 39., 38., 6241., 1521., 1444. ]
      - [ 159., 80., 87., 25281., 6400., 7569. ]
      - [ 26., 11., 14., 676., 121., 196. ]
      - [ 76., 35., 38., 5776., 1225., 1444. ]
      - [ 155., 73., 80., 24025., 5329., 6400. ]
      - [ 80., 37., 34., 6400., 1369., 1156. ]
      - [ 15., 8., 10., 225., 64., 100. ]
      - [ 57., 23., 27., 3249., 529., 729. ]
      - [ 48., 20., 21., 2304., 400., 441. ]
      - [ 49., 18., 20., 2401., 324., 400. ]
      - [ 74., 34., 33., 5476., 1156., 1089. ]
      - [ 108., 56., 54., 11664., 3136., 2916. ]
      - [ 59., 25., 24., 3481., 625., 576. ]
      - [ 99., 51., 49., 9801., 2601., 2401. ]
      - [ 93., 42., 44., 8649., 1764., 1936. ]
      - [ 165., 85., 95., 27225., 7225., 9025. ]
      - [ 135., 67., 71., 18225., 4489., 5041. ]
      - [ 91., 48., 49., 8281., 2304., 2401. ]
      - [ 69., 30., 33., 4761., 900., 1089. ]
      - [ 70., 33., 36., 4900., 1089., 1296. ]
      - [ 91., 42., 44., 8281., 1764., 1936. ]
      - [ 17., 7., 7., 289., 49., 49. ]
      - [ 47., 20., 21., 2209., 400., 441. ]
      - [ 71., 30., 33., 5041., 900., 1089. ]
      - [ 88., 42., 43., 7744., 1764., 1849. ]
      - [ 34., 14., 14., 1156., 196., 196. ]
      - [ 50., 19., 21., 2500., 361., 441. ]
      - [ 67., 31., 31., 4489., 961., 961. ]
      - [ 137., 71., 75., 18769., 5041., 5625. ]
      - [ 152., 73., 79., 23104., 5329., 6241. ]
      - [ 83., 39., 39., 6889., 1521., 1521. ]
      - [ 23., 10., 11., 529., 100., 121. ]
      - [ 54., 24., 23., 2916., 576., 529. ]
      - [ 54., 23., 25., 2916., 529., 625. ]
      - [ 68., 30., 30., 4624., 900., 900. ]
      - [ 122., 59., 63., 14884., 3481., 3969. ]
      - [ 150., 80., 84., 22500., 6400., 7056. ]
      - [ 119., 64., 66., 14161., 4096., 4356. ]
      - [ 31., 10., 12., 961., 100., 144. ]
      - [ 55., 28., 29., 3025., 784., 841. ]
      - [ 46., 21., 22., 2116., 441., 484. ]
      - [ 44., 19., 20., 1936., 361., 400. ]
      - [ 105., 48., 51., 11025., 2304., 2601. ]
      - [ 175., 92., 104., 30625., 8464., 10816. ]
      - [ 85., 37., 35., 7225., 1369., 1225. ]
      - [ 51., 20., 22., 2601., 400., 484. ]
      - [ 66., 29., 32., 4356., 841., 1024. ]
      - [ 176., 95., 101., 30976., 9025., 10201. ]
      - [ 119., 60., 62., 14161., 3600., 3844. ]
      - [ 92., 43., 44., 8464., 1849., 1936. ]
      - [ 42., 22., 22., 1764., 484., 484. ]
      - [ 81., 37., 37., 6561., 1369., 1369. ]
      - [ 92., 41., 43., 8464., 1681., 1849. ]
      - [ 133., 63., 67., 17689., 3969., 4489. ]
      - [ 73., 35., 35., 5329., 1225., 1225. ]
      - [ 86., 40., 41., 7396., 1600., 1681. ]
      - [ 171., 97., 97., 29241., 9409., 9409. ]
      - [ 124., 56., 60., 15376., 3136., 3600. ]
      - [ 119., 56., 59., 14161., 3136., 3481. ]
      - [ 111., 52., 54., 12321., 2704., 2916. ]
      - [ 109., 50., 52., 11881., 2500., 2704. ]
      - [ 117., 63., 62., 13689., 3969., 3844. ]
      - [ 77., 37., 36., 5929., 1369., 1296. ]
      - [ 30., 11., 13., 900., 121., 169. ]
      - [ 96., 45., 47., 9216., 2025., 2209. ]
      - [ 137., 69., 74., 18769., 4761., 5476. ]
      - [ 146., 70., 75., 21316., 4900., 5625. ]
      - [ 67., 30., 33., 4489., 900., 1089. ]
      - [ 28., 11., 12., 784., 121., 144. ]
      - [ 146., 76., 81., 21316., 5776., 6561. ]
      - [ 115., 56., 58., 13225., 3136., 3364. ]
      - [ 72., 34., 33., 5184., 1156., 1089. ]
      - [ 89., 43., 44., 7921., 1849., 1936. ]
      - [ 128., 62., 67., 16384., 3844., 4489. ]
      - [ 120., 64., 63., 14400., 4096., 3969. ]
      - [ 31., 10., 14., 961., 100., 196. ]
      - [ 120., 65., 62., 14400., 4225., 3844. ]
      - [ 78., 35., 36., 6084., 1225., 1296. ]
      - [ 32., 13., 15., 1024., 169., 225. ]
      - [ 67., 35., 34., 4489., 1225., 1156. ]
      - [ 18., 8., 8., 324., 64., 64. ]
      - [ 83., 40., 41., 6889., 1600., 1681. ]
      - [ 158., 85., 87., 24964., 7225., 7569. ]
      - [ 170., 96., 96., 28900., 9216., 9216. ]
      - [ 69., 31., 31., 4761., 961., 961. ]
      - [ 153., 81., 83., 23409., 6561., 6889. ]
      - [ 93., 40., 37., 8649., 1600., 1369. ]
      - [ 22., 9., 12., 484., 81., 144. ]
      - [ 18., 9., 11., 324., 81., 121. ]
      - [ 71., 37., 36., 5041., 1369., 1296. ]
      - [ 123., 60., 64., 15129., 3600., 4096. ]
      - [ 166., 92., 92., 27556., 8464., 8464. ]
      - [ 80., 36., 36., 6400., 1296., 1296. ]
      - [ 47., 19., 20., 2209., 361., 400. ]
      - [ 45., 18., 19., 2025., 324., 361. ]
      - [ 46., 19., 20., 2116., 361., 400. ]
      - [ 90., 47., 48., 8100., 2209., 2304. ]
      - [ 84., 40., 40., 7056., 1600., 1600. ]
      - [ 125., 62., 65., 15625., 3844., 4225. ]
      - [ 78., 38., 38., 6084., 1444., 1444. ]
      - [ 104., 52., 50., 10816., 2704., 2500. ]
      - [ 86., 38., 36., 7396., 1444., 1296. ]
      - [ 17., 7., 9., 289., 49., 81. ]
      - [ 91., 40., 42., 8281., 1600., 1764. ]
      - [ 83., 37., 38., 6889., 1369., 1444. ]
      - [ 149., 84., 85., 22201., 7056., 7225. ]
      - [ 8., 4., 5., 64., 16., 25. ]
      - [ 52., 21., 23., 2704., 441., 529. ]
      - [ 93., 44., 46., 8649., 1936., 2116. ]
      - [ 111., 54., 56., 12321., 2916., 3136. ]
      - [ 10., 3., 5., 100., 9., 25. ]
      - [ 89., 43., 43., 7921., 1849., 1849. ]
      - [ 81., 35., 35., 6561., 1225., 1225. ]
      - [ 95., 42., 43., 9025., 1764., 1849. ]
      - [ 112., 56., 55., 12544., 3136., 3025. ]
      - [ 84., 35., 36., 7056., 1225., 1296. ]
      - [ 19., 6., 9., 361., 36., 81. ]
      - [ 21., 6., 9., 441., 36., 81. ]
      - [ 108., 59., 61., 11664., 3481., 3721. ]
      - [ 148., 81., 82., 21904., 6561., 6724. ]
      - [ 80., 40., 40., 6400., 1600., 1600. ]
      - [ 23., 11., 10., 529., 121., 100. ]
      - [ 90., 37., 38., 8100., 1369., 1444. ]
      - [ 88., 37., 38., 7744., 1369., 1444. ]
      - [ 84., 38., 39., 7056., 1444., 1521. ]
      - [ 19., 9., 9., 361., 81., 81. ]
      - [ 26., 9., 10., 676., 81., 100. ]
      - [ 78., 32., 32., 6084., 1024., 1024. ]
      - [ 104., 47., 49., 10816., 2209., 2401. ]
      - [ 104., 45., 47., 10816., 2025., 2209. ]
      - [ 149., 88., 88., 22201., 7744., 7744. ]
      - [ 95., 44., 46., 9025., 1936., 2116. ]
      - [ 93., 42., 43., 8649., 1764., 1849. ]
      - [ 106., 49., 52., 11236., 2401., 2704. ]
      - [ 105., 48., 50., 11025., 2304., 2500. ]
      - [ 105., 51., 50., 11025., 2601., 2500. ]
      - [ 77., 33., 33., 5929., 1089., 1089. ]
      - [ 58., 23., 25., 3364., 529., 625. ]
      - [ 93., 38., 40., 8649., 1444., 1600. ]
      - [ 94., 39., 41., 8836., 1521., 1681. ]
      - [ 34., 13., 15., 1156., 169., 225. ]
      - [ 94., 54., 54., 8836., 2916., 2916. ]
      - [ 33., 16., 17., 1089., 256., 289. ]
      - [ 90., 40., 38., 8100., 1600., 1444. ]
      - [ 24., 9., 10., 576., 81., 100. ]
      - [ 78., 33., 37., 6084., 1089., 1369. ]
      - [ 87., 41., 42., 7569., 1681., 1764. ]
      - [ 95., 45., 43., 9025., 2025., 1849. ]
      - [ 94., 44., 42., 8836., 1936., 1764. ]
      - [ 36., 15., 17., 1296., 225., 289. ]
      - [ 95., 40., 42., 9025., 1600., 1764. ]
      - [ 91., 41., 39., 8281., 1681., 1521. ]
      - [ 46., 18., 21., 2116., 324., 441. ]
      - [ 90., 39., 40., 8100., 1521., 1600. ]
      - [ 88., 39., 41., 7744., 1521., 1681. ]
      - [ 87., 37., 35., 7569., 1369., 1225. ]
      - [ 42., 16., 19., 1764., 256., 361. ]
      - [ 148., 86., 86., 21904., 7396., 7396. ]
      - [ 91., 43., 41., 8281., 1849., 1681. ]
      - [ 48., 19., 22., 2304., 361., 484. ]
      - [ 35., 13., 13., 1225., 169., 169. ]
      - [ 118., 61., 63., 13924., 3721., 3969. ]
      - [ 20., 5., 6., 400., 25., 36. ]
      - [ 33., 13., 13., 1089., 169., 169. ]
      - [ 113., 62., 63., 12769., 3844., 3969. ]
      - [ 154., 87., 88., 23716., 7569., 7744. ]
      - [ 19., 6., 7., 361., 36., 49. ]
      - [ 81., 38., 39., 6561., 1444., 1521. ]
      - [ 73., 29., 33., 5329., 841., 1089. ]
      - [ 148., 87., 85., 21904., 7569., 7225. ]
      - [ 26., 11., 12., 676., 121., 144. ]
      - [ 29., 11., 11., 841., 121., 121. ]
      - [ 48., 17., 19., 2304., 289., 361. ]
      - [ 100., 47., 48., 10000., 2209., 2304. ]
      - [ 153., 92., 90., 23409., 8464., 8100. ]
      - [ 33., 14., 16., 1089., 196., 256. ]
      - [ 121., 66., 68., 14641., 4356., 4624. ]
      - [ 104., 51., 52., 10816., 2601., 2704. ]
      - [ 100., 51., 52., 10000., 2601., 2704. ]
      - [ 20., 7., 8., 400., 49., 64. ]
      - [ 133., 77., 76., 17689., 5929., 5776. ]
      - [ 107., 56., 57., 11449., 3136., 3249. ]
      - [ 83., 34., 35., 6889., 1156., 1225. ]
      - [ 65., 31., 30., 4225., 961., 900. ]
      - [ 89., 38., 39., 7921., 1444., 1521. ]
      - [ 129., 74., 76., 16641., 5476., 5776. ]
      - [ 56., 24., 23., 3136., 576., 529. ]
      - [ 76., 32., 33., 5776., 1024., 1089. ]
      - [ 14., 4., 4., 196., 16., 16. ]
      - [ 30., 13., 14., 900., 169., 196. ]
      - [ 15., 5., 5., 225., 25., 25. ]
      - [ 16., 6., 6., 256., 36., 36. ]
      - [ 34., 15., 17., 1156., 225., 289. ]
      - [ 62., 28., 27., 3844., 784., 729. ]
      - [ 85., 41., 41., 7225., 1681., 1681. ]
      - [ 86., 40., 40., 7396., 1600., 1600. ]
      - [ 78., 34., 34., 6084., 1156., 1156. ]
      - [ 93., 38., 35., 8649., 1444., 1225. ]
      - [ 93., 41., 39., 8649., 1681., 1521. ]
      - [ 88., 42., 42., 7744., 1764., 1764. ]
      - [ 92., 48., 48., 8464., 2304., 2304. ]
      - [ 25., 12., 13., 625., 144., 169. ]
      - [ 41., 23., 28., 1681., 529., 784. ]
      - [ 35., 16., 18., 1225., 256., 324. ]
      - [ 27., 10., 11., 729., 100., 121. ]
      - [ 78., 32., 33., 6084., 1024., 1089. ]
      - [ 94., 50., 50., 8836., 2500., 2500. ]
      - [ 76., 32., 32., 5776., 1024., 1024. ]
      - [ 64., 38., 36., 4096., 1444., 1296. ]
      - [ 52., 19., 21., 2704., 361., 441. ]
      - [ 60., 25., 27., 3600., 625., 729. ]
      - [ 125., 69., 68., 15625., 4761., 4624. ]
      - [ 34., 16., 21., 1156., 256., 441. ]
      - [ 41., 18., 26., 1681., 324., 676. ]
      - [ 48., 20., 29., 2304., 400., 841. ]
      - [ 51., 24., 31., 2601., 576., 961. ]
      - [ 26., 13., 14., 676., 169., 196. ]
      - [ 133., 73., 71., 17689., 5329., 5041. ]
      - [ 20., 11., 11., 400., 121., 121. ]
      - [ 79., 34., 38., 6241., 1156., 1444. ]
      - [ 99., 50., 52., 9801., 2500., 2704. ]
      - [ 92., 38., 37., 8464., 1444., 1369. ]
      - [ 39., 19., 25., 1521., 361., 625. ]
      - [ 52., 25., 32., 2704., 625., 1024. ]
      - [ 84., 39., 43., 7056., 1521., 1849. ]
      - [ 97., 42., 45., 9409., 1764., 2025. ]
      - [ 56., 21., 23., 3136., 441., 529. ]
      - [ 73., 33., 32., 5329., 1089., 1024. ]
      - [ 22., 12., 12., 484., 144., 144. ]
      - [ 105., 54., 61., 11025., 2916., 3721. ]
      - [ 76., 36., 35., 5776., 1296., 1225. ]
      - [ 36., 17., 21., 1296., 289., 441. ]
      - [ 21., 11., 11., 441., 121., 121. ]
      - [ 43., 18., 19., 1849., 324., 361. ]
      - [ 101., 44., 47., 10201., 1936., 2209. ]
      - [ 124., 71., 78., 15376., 5041., 6084. ]
      - [ 158., 87., 87., 24964., 7569., 7569. ]
      - [ 42., 19., 27., 1764., 361., 729. ]
      - [ 53., 22., 24., 2809., 484., 576. ]
      - [ 94., 42., 40., 8836., 1764., 1600. ]
      - [ 43., 19., 17., 1849., 361., 289. ]
      - [ 61., 24., 27., 3721., 576., 729. ]
      - [ 82., 38., 38., 6724., 1444., 1444. ]
      - [ 37., 15., 15., 1369., 225., 225. ]
      - [ 97., 46., 47., 9409., 2116., 2209. ]
      - [ 96., 44., 42., 9216., 1936., 1764. ]
      - [ 86., 43., 40., 7396., 1849., 1600. ]
      - [ 34., 17., 14., 1156., 289., 196. ]
      - [ 36., 14., 14., 1296., 196., 196. ]
      - [ 123., 67., 66., 15129., 4489., 4356. ]
      - [ 148., 87., 87., 21904., 7569., 7569. ]
      - [ 137., 76., 74., 18769., 5776., 5476. ]
      - [ 110., 49., 47., 12100., 2401., 2209. ]
      - [ 104., 48., 47., 10816., 2304., 2209. ]
      - [ 105., 46., 48., 11025., 2116., 2304. ]
      - [ 92., 49., 49., 8464., 2401., 2401. ]
      - [ 75., 32., 32., 5625., 1024., 1024. ]
      - [ 94., 45., 46., 8836., 2025., 2116. ]
      - [ 103., 49., 54., 10609., 2401., 2916. ]
      - [ 42., 17., 18., 1764., 289., 324. ]
      - [ 67., 27., 27., 4489., 729., 729. ]
      - [ 78., 42., 42., 6084., 1764., 1764. ]
      - [ 82., 33., 34., 6724., 1089., 1156. ]
      - [ 83., 45., 45., 6889., 2025., 2025. ]
      - [ 117., 66., 68., 13689., 4356., 4624. ]
      - [ 50., 28., 28., 2500., 784., 784. ]
      - [ 46., 20., 18., 2116., 400., 324. ]
      - [ 124., 55., 56., 15376., 3025., 3136. ]
      - [ 29., 9., 9., 841., 81., 81. ]
      - [ 103., 57., 57., 10609., 3249., 3249. ]
      - [ 53., 19., 18., 2809., 361., 324. ]
      - [ 128., 66., 66., 16384., 4356., 4356. ]
      - [ 44., 18., 16., 1936., 324., 256. ]
      - [ 145., 79., 78., 21025., 6241., 6084. ]
      - [ 99., 50., 51., 9801., 2500., 2601. ]
      - [ 77., 33., 34., 5929., 1089., 1156. ]
      - [ 110., 56., 55., 12100., 3136., 3025. ]
      - [ 52., 27., 28., 2704., 729., 784. ]
      - [ 85., 45., 45., 7225., 2025., 2025. ]
      - [ 49., 23., 21., 2401., 529., 441. ]
      - [ 53., 24., 27., 2809., 576., 729. ]
      - [ 48., 21., 19., 2304., 441., 361. ]
      - [ 139., 77., 77., 19321., 5929., 5929. ]
      - [ 144., 83., 83., 20736., 6889., 6889. ]
      - [ 111., 53., 52., 12321., 2809., 2704. ]
      - [ 34., 13., 17., 1156., 169., 289. ]
      - [ 36., 13., 15., 1296., 169., 225. ]
      - [ 153., 89., 88., 23409., 7921., 7744. ]
      - [ 43., 17., 20., 1849., 289., 400. ]
      - [ 45., 21., 19., 2025., 441., 361. ]
      - [ 31., 15., 14., 961., 225., 196. ]
      - [ 32., 11., 13., 1024., 121., 169. ]
      - [ 64., 27., 30., 4096., 729., 900. ]
      - [ 61., 26., 28., 3721., 676., 784. ]
      - [ 117., 64., 66., 13689., 4096., 4356. ]
      - [ 32., 11., 15., 1024., 121., 225. ]
      - [ 135., 78., 75., 18225., 6084., 5625. ]
      - [ 100., 44., 43., 10000., 1936., 1849. ]
      - [ 87., 44., 45., 7569., 1936., 2025. ]
      - [ 133., 70., 74., 17689., 4900., 5476. ]
      - [ 121., 57., 56., 14641., 3249., 3136. ]
      - [ 96., 39., 41., 9216., 1521., 1681. ]
      - [ 50., 20., 19., 2500., 400., 361. ]
      - [ 49., 19., 17., 2401., 361., 289. ]
      - [ 54., 20., 19., 2916., 400., 361. ]
      - [ 105., 52., 53., 11025., 2704., 2809. ]
      - [ 95., 42., 44., 9025., 1764., 1936. ]
      - [ 124., 67., 69., 15376., 4489., 4761. ]
      - [ 98., 46., 44., 9604., 2116., 1936. ]
      - [ 36., 10., 13., 1296., 100., 169. ]
      - [ 101., 47., 46., 10201., 2209., 2116. ]
      - [ 93., 40., 42., 8649., 1600., 1764. ]
      - [ 103., 50., 51., 10609., 2500., 2601. ]
      - [ 109., 47., 50., 11881., 2209., 2500. ]
      - [ 28., 12., 11., 784., 144., 121. ]
      - [ 134., 76., 75., 17956., 5776., 5625. ]
      - [ 87., 39., 37., 7569., 1521., 1369. ]
      - [ 36., 18., 18., 1296., 324., 324. ]
      - [ 132., 75., 78., 17424., 5625., 6084. ]
      - [ 87., 42., 39., 7569., 1764., 1521. ]
      - [ 49., 21., 24., 2401., 441., 576. ]
      - [ 48., 22., 25., 2304., 484., 625. ]
      - [ 85., 36., 38., 7225., 1296., 1444. ]
      - [ 119., 69., 74., 14161., 4761., 5476. ]
      - [ 42., 20., 26., 1764., 400., 676. ]
      - [ 51., 24., 22., 2601., 576., 484. ]
      - [ 52., 25., 23., 2704., 625., 529. ]
      - [ 33., 14., 18., 1089., 196., 324. ]
      - [ 77., 40., 43., 5929., 1600., 1849. ]
      - [ 133., 79., 84., 17689., 6241., 7056. ]
      - [ 79., 37., 34., 6241., 1369., 1156. ]
      - [ 92., 46., 46., 8464., 2116., 2116. ]
      - [ 98., 43., 46., 9604., 1849., 2116. ]
      - [ 33., 12., 14., 1089., 144., 196. ]
      - [ 163., 90., 92., 26569., 8100., 8464. ]
      - [ 102., 47., 50., 10404., 2209., 2500. ]
      - [ 81., 38., 35., 6561., 1444., 1225. ]
      - [ 35., 16., 20., 1225., 256., 400. ]
      - [ 157., 86., 86., 24649., 7396., 7396. ]
      - [ 42., 18., 16., 1764., 324., 256. ]
      - [ 57., 21., 21., 3249., 441., 441. ]
      - [ 71., 32., 35., 5041., 1024., 1225. ]
      - [ 108., 55., 57., 11664., 3025., 3249. ]
      - [ 53., 23., 22., 2809., 529., 484. ]
      - [ 37., 16., 18., 1369., 256., 324. ]
      - [ 74., 33., 36., 5476., 1089., 1296. ]
      - [ 138., 76., 79., 19044., 5776., 6241. ]
      - [ 139., 77., 81., 19321., 5929., 6561. ]
      - [ 163., 93., 97., 26569., 8649., 9409. ]
      - [ 37., 20., 17., 1369., 400., 289. ]
      - [ 158., 88., 93., 24964., 7744., 8649. ]
      - [ 86., 36., 34., 7396., 1296., 1156. ]
      - [ 98., 50., 48., 9604., 2500., 2304. ]
      - [ 169., 83., 94., 28561., 6889., 8836. ]
      - [ 112., 53., 56., 12544., 2809., 3136. ]
      - [ 55., 23., 22., 3025., 529., 484. ]
      - [ 149., 74., 85., 22201., 5476., 7225. ]
      - [ 62., 30., 29., 3844., 900., 841. ]
      - [ 159., 93., 91., 25281., 8649., 8281. ]
      - [ 81., 32., 33., 6561., 1024., 1089. ]
      - [ 39., 19., 19., 1521., 361., 361. ]
      - [ 109., 50., 53., 11881., 2500., 2809. ]
      - [ 103., 57., 58., 10609., 3249., 3364. ]
      - [ 87., 36., 37., 7569., 1296., 1369. ]
      - [ 98., 58., 58., 9604., 3364., 3364. ]
      - [ 114., 56., 62., 12996., 3136., 3844. ]
      - [ 104., 61., 62., 10816., 3721., 3844. ]
      - [ 103., 41., 44., 10609., 1681., 1936. ]
      - [ 96., 48., 46., 9216., 2304., 2116. ]
      - [ 116., 54., 58., 13456., 2916., 3364. ]
      - [ 108., 51., 54., 11664., 2601., 2916. ]
      - [ 137., 86., 88., 18769., 7396., 7744. ]
      - [ 144., 78., 82., 20736., 6084., 6724. ]
      - [ 135., 66., 74., 18225., 4356., 5476. ]
      - [ 114., 52., 56., 12996., 2704., 3136. ]
      - [ 143., 81., 85., 20449., 6561., 7225. ]
      - [ 177., 89., 100., 31329., 7921., 10000. ]
      - [ 113., 56., 59., 12769., 3136., 3481. ]
      - [ 74., 40., 39., 5476., 1600., 1521. ]
      - [ 118., 60., 59., 13924., 3600., 3481. ]
      - [ 54., 27., 25., 2916., 729., 625. ]
      - [ 87., 51., 55., 7569., 2601., 3025. ]
      - [ 45., 17., 18., 2025., 289., 324. ]
      - [ 28., 9., 11., 784., 81., 121. ]
      - [ 136., 67., 75., 18496., 4489., 5625. ]
      - [ 113., 71., 76., 12769., 5041., 5776. ]
      - [ 104., 49., 51., 10816., 2401., 2601. ]
      - [ 96., 47., 48., 9216., 2209., 2304. ]
      - [ 197., 104., 118., 38809., 10816., 13924. ]
      - [ 128., 78., 83., 16384., 6084., 6889. ]
      - [ 86., 34., 32., 7396., 1156., 1024. ]
      - [ 16., 7., 5., 256., 49., 25. ]
      - [ 195., 100., 114., 38025., 10000., 12996. ]
      - [ 92., 39., 41., 8464., 1521., 1681. ]
      - [ 121., 58., 62., 14641., 3364., 3844. ]
      - [ 109., 47., 51., 11881., 2209., 2601. ]
      - [ 75., 42., 44., 5625., 1764., 1936. ]
      - [ 27., 12., 13., 729., 144., 169. ]
      - [ 82., 38., 42., 6724., 1444., 1764. ]
      - [ 108., 55., 62., 11664., 3025., 3844. ]
      - [ 24., 7., 8., 576., 49., 64. ]
      - [ 139., 69., 74., 19321., 4761., 5476. ]
      - [ 120., 66., 71., 14400., 4356., 5041. ]
      - [ 211., 116., 76., 44521., 13456., 5776. ]
      - [ 157., 91., 95., 24649., 8281., 9025. ]
      - [ 255., 117., 77., 65025., 13689., 5929. ]
      - [ 140., 81., 84., 19600., 6561., 7056. ]
      - [ 61., 32., 35., 3721., 1024., 1225. ]
      - [ 49., 21., 22., 2401., 441., 484. ]
      - [ 144., 85., 88., 20736., 7225., 7744. ]
      - [ 154., 91., 94., 23716., 8281., 8836. ]
      - [ 136., 68., 73., 18496., 4624., 5329. ]
      - [ 160., 94., 98., 25600., 8836., 9604. ]
      - [ 42., 21., 18., 1764., 441., 324. ]
      - [ 66., 34., 33., 4356., 1156., 1089. ]
      - [ 15., 6., 6., 225., 36., 36. ]
      - [ 35., 15., 15., 1225., 225., 225. ]
      - [ 146., 72., 78., 21316., 5184., 6084. ]
      - [ 158., 89., 90., 24964., 7921., 8100. ]
      - [ 126., 73., 74., 15876., 5329., 5476. ]
      - [ 68., 32., 36., 4624., 1024., 1296. ]
      - [ 174., 90., 102., 30276., 8100., 10404. ]
      - [ 91., 39., 37., 8281., 1521., 1369. ]
      - [ 70., 36., 35., 4900., 1296., 1225. ]
      - [ 75., 36., 39., 5625., 1296., 1521. ]
      - [ 202., 101., 114., 40804., 10201., 12996. ]
      - [ 146., 73., 78., 21316., 5329., 6084. ]
      - [ 165., 95., 99., 27225., 9025., 9801. ]
      - [ 159., 91., 95., 25281., 8281., 9025. ]
      - [ 132., 78., 77., 17424., 6084., 5929. ]
      - [ 43., 16., 17., 1849., 256., 289. ]
      - [ 116., 53., 60., 13456., 2809., 3600. ]
      - [ 156., 73., 85., 24336., 5329., 7225. ]
      - [ 159., 77., 87., 25281., 5929., 7569. ]
      - [ 170., 100., 104., 28900., 10000., 10816. ]
      - [ 18., 4., 9., 324., 16., 81. ]
      - [ 15., 5., 9., 225., 25., 81. ]
      - [ 155., 72., 84., 24025., 5184., 7056. ]
      - [ 78., 34., 38., 6084., 1156., 1444. ]
      - [ 96., 42., 41., 9216., 1764., 1681. ]
      - [ 211., 109., 124., 44521., 11881., 15376. ]
      - [ 166., 96., 101., 27556., 9216., 10201. ]
      - [ 103., 46., 48., 10609., 2116., 2304. ]
      - [ 99., 47., 45., 9801., 2209., 2025. ]
      - [ 166., 98., 102., 27556., 9604., 10404. ]
      - [ 161., 82., 89., 25921., 6724., 7921. ]
      - [ 97., 38., 40., 9409., 1444., 1600. ]
      - [ 37., 18., 14., 1369., 324., 196. ]
      - [ 71., 31., 30., 5041., 961., 900. ]
      - [ 83., 33., 38., 6889., 1089., 1444. ]
      - [ 87., 41., 41., 7569., 1681., 1681. ]
      - [ 173., 101., 103., 29929., 10201., 10609. ]
      - [ 171., 99., 101., 29241., 9801., 10201. ]
      - [ 83., 35., 33., 6889., 1225., 1089. ]
      - [ 156., 74., 84., 24336., 5476., 7056. ]
      - [ 112., 63., 64., 12544., 3969., 4096. ]
      - [ 167., 94., 100., 27889., 8836., 10000. ]
      - [ 139., 82., 84., 19321., 6724., 7056. ]
      - [ 46., 18., 19., 2116., 324., 361. ]
      - [ 138., 65., 71., 19044., 4225., 5041. ]
      - [ 132., 66., 71., 17424., 4356., 5041. ]
      - [ 158., 92., 97., 24964., 8464., 9409. ]
      - [ 8., 1., 3., 64., 1., 9. ]
      - [ 93., 43., 41., 8649., 1849., 1681. ]
      - [ 211., 112., 125., 44521., 12544., 15625. ]
      - [ 102., 50., 48., 10404., 2500., 2304. ]
      - [ 123., 64., 66., 15129., 4096., 4356. ]
      - [ 49., 23., 20., 2401., 529., 400. ]
      - [ 95., 49., 49., 9025., 2401., 2401. ]
      - [ 96., 46., 44., 9216., 2116., 1936. ]
      - [ 173., 102., 98., 29929., 10404., 9604. ]
      - [ 131., 65., 70., 17161., 4225., 4900. ]
      - [ 129., 62., 63., 16641., 3844., 3969. ]
      - [ 123., 66., 68., 15129., 4356., 4624. ]
      - [ 22., 7., 8., 484., 49., 64. ]
      - [ 6., 2., 3., 36., 4., 9. ]
      - [ 129., 61., 66., 16641., 3721., 4356. ]
      - [ 116., 58., 57., 13456., 3364., 3249. ]
      - [ 100., 48., 46., 10000., 2304., 2116. ]
      - [ 124., 72., 70., 15376., 5184., 4900. ]
      - [ 178., 104., 103., 31684., 10816., 10609. ]
      - [ 34., 18., 17., 1156., 324., 289. ]
      - [ 65., 27., 26., 4225., 729., 676. ]
      - [ 116., 57., 60., 13456., 3249., 3600. ]
      - [ 145., 71., 80., 21025., 5041., 6400. ]
      - [ 39., 20., 17., 1521., 400., 289. ]
      - [ 118., 56., 60., 13924., 3136., 3600. ]
      - [ 96., 47., 43., 9216., 2209., 1849. ]
      - [ 113., 69., 69., 12769., 4761., 4761. ]
      - [ 114., 51., 54., 12996., 2601., 2916. ]
      - [ 43., 24., 21., 1849., 576., 441. ]
      - [ 69., 32., 35., 4761., 1024., 1225. ]
      - [ 10., 6., 7., 100., 36., 49. ]
      - [ 142., 69., 75., 20164., 4761., 5625. ]
      - [ 115., 53., 56., 13225., 2809., 3136. ]
      - [ 112., 55., 58., 12544., 3025., 3364. ]
      - [ 122., 65., 67., 14884., 4225., 4489. ]
      - [ 97., 47., 45., 9409., 2209., 2025. ]
      - [ 120., 58., 61., 14400., 3364., 3721. ]
      - [ 37., 18., 15., 1369., 324., 225. ]
      - [ 11., 4., 6., 121., 16., 36. ]
      - [ 124., 61., 65., 15376., 3721., 4225. ]
      - [ 110., 53., 56., 12100., 2809., 3136. ]
      - [ 118., 55., 62., 13924., 3025., 3844. ]
      - [ 133., 78., 80., 17689., 6084., 6400. ]
      - [ 40., 14., 17., 1600., 196., 289. ]
      - [ 140., 66., 75., 19600., 4356., 5625. ]
      - [ 97., 45., 43., 9409., 2025., 1849. ]
      - [ 91., 36., 39., 8281., 1296., 1521. ]
      - [ 38., 19., 16., 1444., 361., 256. ]
      - [ 39., 18., 15., 1521., 324., 225. ]
      - [ 75., 32., 29., 5625., 1024., 841. ]
      - [ 34., 15., 22., 1156., 225., 484. ]
      - [ 123., 61., 65., 15129., 3721., 4225. ]
      - [ 133., 80., 81., 17689., 6400., 6561. ]
      - [ 118., 68., 66., 13924., 4624., 4356. ]
      - [ 140., 70., 75., 19600., 4900., 5625. ]
      - [ 38., 17., 14., 1444., 289., 196. ]
      - [ 110., 47., 50., 12100., 2209., 2500. ]
      - [ 80., 34., 34., 6400., 1156., 1156. ]
      - [ 162., 91., 91., 26244., 8281., 8281. ]
      - [ 99., 42., 45., 9801., 1764., 2025. ]
      - [ 131., 60., 59., 17161., 3600., 3481. ]
      - [ 76., 32., 36., 5776., 1024., 1296. ]
      - [ 132., 73., 75., 17424., 5329., 5625. ]
      - [ 24., 11., 14., 576., 121., 196. ]
      - [ 106., 50., 49., 11236., 2500., 2401. ]
      - [ 102., 49., 50., 10404., 2401., 2500. ]
      - [ 88., 40., 38., 7744., 1600., 1444. ]
      - [ 87., 40., 36., 7569., 1600., 1296. ]
      - [ 122., 72., 70., 14884., 5184., 4900. ]
      - [ 33., 11., 11., 1089., 121., 121. ]
      - [ 126., 63., 67., 15876., 3969., 4489. ]
      - [ 115., 56., 59., 13225., 3136., 3481. ]
      - [ 156., 89., 90., 24336., 7921., 8100. ]
      - [ 82., 44., 43., 6724., 1936., 1849. ]
      - [ 23., 8., 11., 529., 64., 121. ]
      - [ 134., 64., 69., 17956., 4096., 4761. ]
      - [ 140., 80., 77., 19600., 6400., 5929. ]
      - [ 152., 77., 86., 23104., 5929., 7396. ]
      - [ 51., 19., 18., 2601., 361., 324. ]
      - [ 115., 53., 57., 13225., 2809., 3249. ]
      - [ 163., 83., 93., 26569., 6889., 8649. ]
      - [ 153., 77., 82., 23409., 5929., 6724. ]
      - [ 105., 49., 48., 11025., 2401., 2304. ]
      - [ 108., 57., 53., 11664., 3249., 2809. ]
      - [ 47., 17., 16., 2209., 289., 256. ]
      - [ 91., 40., 36., 8281., 1600., 1296. ]
      - [ 29., 15., 14., 841., 225., 196. ]
      - [ 103., 48., 51., 10609., 2304., 2601. ]
      - [ 51., 19., 23., 2601., 361., 529. ]
      - [ 141., 67., 76., 19881., 4489., 5776. ]
      - [ 169., 87., 97., 28561., 7569., 9409. ]
      - [ 164., 96., 95., 26896., 9216., 9025. ]
      - [ 149., 83., 82., 22201., 6889., 6724. ]
      - [ 109., 49., 47., 11881., 2401., 2209. ]
      - [ 85., 35., 33., 7225., 1225., 1089. ]
      - [ 80., 36., 31., 6400., 1296., 961. ]
      - [ 102., 49., 51., 10404., 2401., 2601. ]
      - [ 168., 96., 95., 28224., 9216., 9025. ]
      - [ 41., 15., 13., 1681., 225., 169. ]
      - [ 52., 24., 27., 2704., 576., 729. ]
      - [ 47., 22., 23., 2209., 484., 529. ]
      - [ 107., 57., 55., 11449., 3249., 3025. ]
      - [ 51., 26., 20., 2601., 676., 400. ]
      - [ 34., 16., 16., 1156., 256., 256. ]
      - [ 131., 63., 68., 17161., 3969., 4624. ]
      - [ 159., 90., 91., 25281., 8100., 8281. ]
      - [ 40., 19., 16., 1600., 361., 256. ]
      - [ 91., 38., 39., 8281., 1444., 1521. ]
      - [ 127., 59., 64., 16129., 3481., 4096. ]
      - [ 100., 46., 45., 10000., 2116., 2025. ]
      - [ 86., 33., 34., 7396., 1089., 1156. ]
      - [ 112., 64., 62., 12544., 4096., 3844. ]
      - [ 61., 27., 26., 3721., 729., 676. ]
      - [ 40., 17., 21., 1600., 289., 441. ]
      - [ 33., 15., 20., 1089., 225., 400. ]
      - [ 39., 15., 13., 1521., 225., 169. ]
      - [ 139., 79., 77., 19321., 6241., 5929. ]
      - [ 128., 66., 69., 16384., 4356., 4761. ]
      - [ 84., 41., 38., 7056., 1681., 1444. ]
      - [ 143., 69., 75., 20449., 4761., 5625. ]
      - [ 148., 74., 80., 21904., 5476., 6400. ]
      - [ 111., 50., 50., 12321., 2500., 2500. ]
      - [ 49., 22., 23., 2401., 484., 529. ]
      - [ 44., 17., 15., 1936., 289., 225. ]
      - [ 36., 19., 16., 1296., 361., 256. ]
      - [ 158., 90., 88., 24964., 8100., 7744. ]
      - [ 133., 78., 75., 17689., 6084., 5625. ]
      - [ 57., 30., 28., 3249., 900., 784. ]
      - [ 32., 12., 12., 1024., 144., 144. ]
      - [ 128., 62., 66., 16384., 3844., 4356. ]
      - [ 157., 91., 90., 24649., 8281., 8100. ]
      - [ 67., 37., 35., 4489., 1369., 1225. ]
      - [ 36., 17., 14., 1296., 289., 196. ]
      - [ 27., 9., 14., 729., 81., 196. ]
      - [ 16., 4., 3., 256., 16., 9. ]
      - [ 27., 9., 9., 729., 81., 81. ]
      - [ 128., 61., 62., 16384., 3721., 3844. ]
      - [ 100., 45., 47., 10000., 2025., 2209. ]
      - [ 16., 3., 4., 256., 9., 16. ]
      - [ 94., 45., 47., 8836., 2025., 2209. ]
      - [ 193., 111., 109., 37249., 12321., 11881. ]
      - [ 94., 41., 43., 8836., 1681., 1849. ]
      - [ 179., 99., 100., 32041., 9801., 10000. ]
      - [ 37., 14., 16., 1369., 196., 256. ]
      - [ 31., 13., 18., 961., 169., 324. ]
      - [ 76., 30., 30., 5776., 900., 900. ]
      - [ 59., 31., 32., 3481., 961., 1024. ]
      - [ 97., 40., 42., 9409., 1600., 1764. ]
      - [ 119., 70., 66., 14161., 4900., 4356. ]
      - [ 120., 58., 62., 14400., 3364., 3844. ]
      - [ 90., 39., 35., 8100., 1521., 1225. ]
      - [ 117., 59., 58., 13689., 3481., 3364. ]
      - [ 158., 86., 88., 24964., 7396., 7744. ]
      - [ 51., 23., 26., 2601., 529., 676. ]
      - [ 29., 16., 19., 841., 256., 361. ]
      - [ 77., 34., 35., 5929., 1156., 1225. ]
      - [ 156., 87., 88., 24336., 7569., 7744. ]
      - [ 55., 25., 24., 3025., 625., 576. ]
      - [ 58., 22., 26., 3364., 484., 676. ]
      - [ 109., 52., 55., 11881., 2704., 3025. ]
      - [ 111., 58., 55., 12321., 3364., 3025. ]
      - [ 38., 18., 18., 1444., 324., 324. ]
      - [ 57., 29., 32., 3249., 841., 1024. ]
      - [ 104., 47., 44., 10816., 2209., 1936. ]
      - [ 49., 16., 18., 2401., 256., 324. ]
      - [ 101., 48., 50., 10201., 2304., 2500. ]
      - [ 129., 63., 62., 16641., 3969., 3844. ]
      - [ 45., 15., 14., 2025., 225., 196. ]
      - [ 30., 11., 18., 900., 121., 324. ]
      - [ 4., 2., 3., 16., 4., 9. ]
      - [ 83., 40., 37., 6889., 1600., 1369. ]
      - [ 57., 25., 24., 3249., 625., 576. ]
      - [ 107., 48., 51., 11449., 2304., 2601. ]
      - [ 122., 56., 61., 14884., 3136., 3721. ]
      - [ 84., 35., 37., 7056., 1225., 1369. ]
      - [ 123., 68., 65., 15129., 4624., 4225. ]
      - [ 45., 18., 16., 2025., 324., 256. ]
      - [ 152., 88., 87., 23104., 7744., 7569. ]
      - [ 38., 17., 13., 1444., 289., 169. ]
      - [ 39., 17., 17., 1521., 289., 289. ]
      - [ 45., 16., 19., 2025., 256., 361. ]
      - [ 150., 90., 84., 22500., 8100., 7056. ]
      - [ 102., 46., 45., 10404., 2116., 2025. ]
      - [ 102., 43., 45., 10404., 1849., 2025. ]
      - [ 117., 55., 58., 13689., 3025., 3364. ]
      - [ 46., 21., 15., 2116., 441., 225. ]
      - [ 41., 17., 15., 1681., 289., 225. ]
      - [ 120., 66., 65., 14400., 4356., 4225. ]
      - [ 126., 73., 69., 15876., 5329., 4761. ]
      - [ 36., 17., 13., 1296., 289., 169. ]
      - [ 122., 70., 68., 14884., 4900., 4624. ]
      - [ 41., 18., 22., 1681., 324., 484. ]
      - [ 145., 80., 81., 21025., 6400., 6561. ]
      - [ 34., 17., 13., 1156., 289., 169. ]
      - [ 76., 33., 33., 5776., 1089., 1089. ]
      - [ 135., 74., 74., 18225., 5476., 5476. ]
      - [ 137., 81., 80., 18769., 6561., 6400. ]
      - [ 127., 75., 73., 16129., 5625., 5329. ]
      - [ 79., 33., 34., 6241., 1089., 1156. ]
      - [ 102., 47., 44., 10404., 2209., 1936. ]
      - [ 48., 18., 17., 2304., 324., 289. ]
      - [ 92., 40., 38., 8464., 1600., 1444. ]
      - [ 39., 18., 14., 1521., 324., 196. ]
      - [ 43., 15., 16., 1849., 225., 256. ]
      - [ 95., 43., 41., 9025., 1849., 1681. ]
      - [ 100., 55., 52., 10000., 3025., 2704. ]
      - [ 89., 41., 39., 7921., 1681., 1521. ]
      - [ 121., 70., 71., 14641., 4900., 5041. ]
      - [ 103., 52., 53., 10609., 2704., 2809. ]
      - [ 81., 37., 32., 6561., 1369., 1024. ]
      - [ 129., 70., 64., 16641., 4900., 4096. ]
      - [ 29., 16., 11., 841., 256., 121. ]
      - [ 100., 52., 50., 10000., 2704., 2500. ]
      - [ 131., 76., 73., 17161., 5776., 5329. ]
      - [ 68., 28., 28., 4624., 784., 784. ]
      - [ 83., 38., 35., 6889., 1444., 1225. ]
      - [ 37., 16., 12., 1369., 256., 144. ]
      - [ 125., 70., 67., 15625., 4900., 4489. ]
      - [ 146., 85., 83., 21316., 7225., 6889. ]
      - [ 118., 57., 55., 13924., 3249., 3025. ]
      - [ 52., 20., 26., 2704., 400., 676. ]
      - [ 136., 72., 70., 18496., 5184., 4900. ]
      - [ 82., 37., 34., 6724., 1369., 1156. ]
      - [ 51., 19., 25., 2601., 361., 625. ]
      - [ 48., 16., 15., 2304., 256., 225. ]
      - [ 145., 84., 82., 21025., 7056., 6724. ]
      - [ 50., 18., 17., 2500., 324., 289. ]
      - [ 150., 86., 84., 22500., 7396., 7056. ]
      - [ 73., 29., 30., 5329., 841., 900. ]
      - [ 46., 15., 17., 2116., 225., 289. ]
      - [ 47., 16., 18., 2209., 256., 324. ]
      - [ 27., 11., 16., 729., 121., 256. ]
      - [ 97., 43., 42., 9409., 1849., 1764. ]
      - [ 40., 19., 15., 1600., 361., 225. ]
      - [ 67., 30., 38., 4489., 900., 1444. ]
      - [ 136., 80., 79., 18496., 6400., 6241. ]
      - [ 15., 4., 8., 225., 16., 64. ]
      - [ 87., 34., 35., 7569., 1156., 1225. ]
      - [ 36., 15., 11., 1296., 225., 121. ]
      - [ 132., 77., 74., 17424., 5929., 5476. ]
      - [ 58., 26., 25., 3364., 676., 625. ]
      - [ 79., 36., 33., 6241., 1296., 1089. ]
      - [ 74., 31., 32., 5476., 961., 1024. ]
      - [ 127., 71., 70., 16129., 5041., 4900. ]
      - [ 124., 71., 68., 15376., 5041., 4624. ]
      - [ 68., 30., 29., 4624., 900., 841. ]
      - [ 60., 33., 31., 3600., 1089., 961. ]
      - [ 38., 19., 15., 1444., 361., 225. ]
      - [ 129., 73., 72., 16641., 5329., 5184. ]
      - [ 82., 43., 39., 6724., 1849., 1521. ]
      - [ 118., 67., 63., 13924., 4489., 3969. ]
      - [ 80., 38., 33., 6400., 1444., 1089. ]
      - [ 79., 43., 43., 6241., 1849., 1849. ]
      - [ 32., 18., 17., 1024., 324., 289. ]
      - [ 66., 27., 30., 4356., 729., 900. ]
      - [ 128., 71., 68., 16384., 5041., 4624. ]
      - [ 85., 49., 49., 7225., 2401., 2401. ]
      - [ 30., 15., 11., 900., 225., 121. ]
      - [ 33., 12., 9., 1089., 144., 81. ]
      - [ 64., 25., 28., 4096., 625., 784. ]
      - [ 86., 43., 44., 7396., 1849., 1936. ]
      - [ 65., 26., 29., 4225., 676., 841. ]
      - [ 50., 21., 34., 2500., 441., 1156. ]
      - [ 77., 34., 34., 5929., 1156., 1156. ]
      - [ 147., 86., 84., 21609., 7396., 7056. ]
      - [ 85., 43., 38., 7225., 1849., 1444. ]
      - [ 128., 74., 73., 16384., 5476., 5329. ]
      - [ 68., 34., 32., 4624., 1156., 1024. ]
      - [ 68., 32., 31., 4624., 1024., 961. ]
      - [ 73., 36., 39., 5329., 1296., 1521. ]
      - [ 35., 14., 11., 1225., 196., 121. ]
      - [ 89., 39., 37., 7921., 1521., 1369. ]
      - [ 89., 44., 41., 7921., 1936., 1681. ]
      - [ 58., 24., 30., 3364., 576., 900. ]
      - [ 98., 52., 52., 9604., 2704., 2704. ]
      - [ 22., 8., 13., 484., 64., 169. ]
      - [ 58., 27., 36., 3364., 729., 1296. ]
      - [ 33., 18., 13., 1089., 324., 169. ]
      - [ 101., 56., 53., 10201., 3136., 2809. ]
      - [ 140., 82., 81., 19600., 6724., 6561. ]
      - [ 81., 36., 33., 6561., 1296., 1089. ]
      - [ 86., 41., 38., 7396., 1681., 1444. ]
      - [ 131., 75., 74., 17161., 5625., 5476. ]
      - [ 64., 26., 36., 4096., 676., 1296. ]
      - [ 88., 46., 43., 7744., 2116., 1849. ]
      - [ 141., 80., 78., 19881., 6400., 6084. ]
      - [ 135., 75., 72., 18225., 5625., 5184. ]
      - [ 134., 77., 74., 17956., 5929., 5476. ]
      - [ 40., 16., 13., 1600., 256., 169. ]
      - [ 34., 19., 14., 1156., 361., 196. ]
      - [ 30., 12., 17., 900., 144., 289. ]
      - [ 76., 33., 30., 5776., 1089., 900. ]
      - [ 63., 31., 29., 3969., 961., 841. ]
      - [ 98., 49., 50., 9604., 2401., 2500. ]
      - [ 130., 76., 75., 16900., 5776., 5625. ]
      - [ 34., 15., 11., 1156., 225., 121. ]
      - [ 119., 59., 56., 14161., 3481., 3136. ]
      - [ 33., 14., 10., 1089., 196., 100. ]
      - [ 54., 22., 28., 2916., 484., 784. ]
      - [ 85., 41., 42., 7225., 1681., 1764. ]
      - [ 126., 71., 67., 15876., 5041., 4489. ]
      - [ 35., 16., 12., 1225., 256., 144. ]
      - [ 119., 67., 65., 14161., 4489., 4225. ]
      - [ 71., 28., 29., 5041., 784., 841. ]
      - [ 50., 23., 21., 2500., 529., 441. ]
      - [ 51., 24., 25., 2601., 576., 625. ]
      - [ 83., 43., 42., 6889., 1849., 1764. ]
      - [ 86., 44., 41., 7396., 1936., 1681. ]
      - [ 40., 16., 14., 1600., 256., 196. ]
      - [ 24., 13., 9., 576., 169., 81. ]
      - [ 48., 25., 33., 2304., 625., 1089. ]
      - [ 100., 57., 54., 10000., 3249., 2916. ]
      - [ 66., 34., 32., 4356., 1156., 1024. ]
      - [ 141., 81., 79., 19881., 6561., 6241. ]
      - [ 72., 29., 29., 5184., 841., 841. ]
      - [ 74., 31., 31., 5476., 961., 961. ]
      - [ 79., 34., 31., 6241., 1156., 961. ]
      - [ 31., 14., 11., 961., 196., 121. ]
      - [ 56., 24., 22., 3136., 576., 484. ]
      - [ 120., 63., 60., 14400., 3969., 3600. ]
      - [ 23., 15., 10., 529., 225., 100. ]
      - [ 49., 19., 18., 2401., 361., 324. ]
      - [ 32., 15., 12., 1024., 225., 144. ]
      - [ 33., 16., 13., 1089., 256., 169. ]
      - [ 64., 32., 31., 4096., 1024., 961. ]
      - [ 88., 38., 36., 7744., 1444., 1296. ]
      - [ 39., 22., 19., 1521., 484., 361. ]
      - [ 85., 46., 42., 7225., 2116., 1764. ]
      - [ 120., 65., 61., 14400., 4225., 3721. ]
      - [ 123., 69., 68., 15129., 4761., 4624. ]
      - [ 84., 36., 34., 7056., 1296., 1156. ]
      - [ 84., 39., 36., 7056., 1521., 1296. ]
      - [ 50., 22., 25., 2500., 484., 625. ]
      - [ 62., 27., 40., 3844., 729., 1600. ]
      - [ 64., 29., 31., 4096., 841., 961. ]
      - [ 79., 41., 40., 6241., 1681., 1600. ]
      - [ 85., 38., 34., 7225., 1444., 1156. ]
      - [ 60., 28., 40., 3600., 784., 1600. ]
      - [ 54., 28., 26., 2916., 784., 676. ]
      - [ 80., 42., 42., 6400., 1764., 1764. ]
      - [ 84., 44., 43., 7056., 1936., 1849. ]
      - [ 5., 1., 2., 25., 1., 4. ]
      - [ 57., 27., 43., 3249., 729., 1849. ]
      - [ 73., 30., 30., 5329., 900., 900. ]
      - [ 77., 35., 32., 5929., 1225., 1024. ]
      - [ 86., 45., 48., 7396., 2025., 2304. ]
      - [ 63., 28., 41., 3969., 784., 1681. ]
      - [ 90., 49., 52., 8100., 2401., 2704. ]
      - [ 80., 41., 44., 6400., 1681., 1936. ]
      - [ 73., 31., 42., 5329., 961., 1764. ]
      - [ 28., 15., 11., 784., 225., 121. ]
      - [ 97., 52., 49., 9409., 2704., 2401. ]
      - [ 130., 69., 69., 16900., 4761., 4761. ]
      - [ 96., 52., 52., 9216., 2704., 2704. ]
      - [ 137., 80., 76., 18769., 6400., 5776. ]
      - [ 56., 22., 21., 3136., 484., 441. ]
      - [ 32., 13., 10., 1024., 169., 100. ]
      - [ 83., 42., 45., 6889., 1764., 2025. ]
      - [ 96., 52., 47., 9216., 2704., 2209. ]
      - [ 26., 14., 13., 676., 196., 169. ]
      - [ 41., 15., 18., 1681., 225., 324. ]
      - [ 49., 17., 16., 2401., 289., 256. ]
      - [ 19., 9., 11., 361., 81., 121. ]
      - [ 133., 76., 73., 17689., 5776., 5329. ]
      - [ 124., 73., 68., 15376., 5329., 4624. ]
      - [ 25., 12., 8., 625., 144., 64. ]
      - [ 83., 45., 44., 6889., 2025., 1936. ]
      - [ 119., 64., 60., 14161., 4096., 3600. ]
      - [ 126., 73., 70., 15876., 5329., 4900. ]
      - [ 70., 37., 32., 4900., 1369., 1024. ]
      - [ 56., 26., 25., 3136., 676., 625. ]
      - [ 44., 16., 17., 1936., 256., 289. ]
      - [ 31., 13., 13., 961., 169., 169. ]
      - [ 101., 54., 50., 10201., 2916., 2500. ]
      - [ 70., 30., 29., 4900., 900., 841. ]
      - [ 27., 12., 8., 729., 144., 64. ]
      - [ 28., 14., 13., 784., 196., 169. ]
      - [ 82., 46., 46., 6724., 2116., 2116. ]
      - [ 138., 81., 77., 19044., 6561., 5929. ]
      - [ 104., 57., 53., 10816., 3249., 2809. ]
      - [ 66., 40., 34., 4356., 1600., 1156. ]
      - [ 17., 4., 7., 289., 16., 49. ]
      - [ 68., 37., 39., 4624., 1369., 1521. ]
      - [ 54., 25., 38., 2916., 625., 1444. ]
      - [ 47., 19., 22., 2209., 361., 484. ]
      - [ 113., 59., 58., 12769., 3481., 3364. ]
      - [ 79., 33., 33., 6241., 1089., 1089. ]
      - [ 113., 61., 59., 12769., 3721., 3481. ]
      - [ 121., 67., 66., 14641., 4489., 4356. ]
      - [ 14., 4., 6., 196., 16., 36. ]
      - [ 31., 19., 18., 961., 361., 324. ]
      - [ 49., 20., 27., 2401., 400., 729. ]
      - [ 27., 11., 10., 729., 121., 100. ]
      - [ 105., 57., 55., 11025., 3249., 3025. ]
      - [ 80., 35., 32., 6400., 1225., 1024. ]
      - [ 59., 28., 30., 3481., 784., 900. ]
      - [ 72., 36., 42., 5184., 1296., 1764. ]
      - [ 27., 15., 14., 729., 225., 196. ]
      - [ 111., 60., 56., 12321., 3600., 3136. ]
      - [ 77., 31., 31., 5929., 961., 961. ]
      - [ 27., 18., 16., 729., 324., 256. ]
      - [ 75., 43., 41., 5625., 1849., 1681. ]
      - [ 7., 0., 2., 49., 0., 4. ]
      - [ 28., 13., 9., 784., 169., 81. ]
      - [ 61., 29., 27., 3721., 841., 729. ]
      - [ 87., 46., 49., 7569., 2116., 2401. ]
      - [ 95., 48., 43., 9025., 2304., 1849. ]
      - [ 109., 60., 56., 11881., 3600., 3136. ]
      - [ 60., 30., 29., 3600., 900., 841. ]
      - [ 39., 23., 22., 1521., 529., 484. ]
      - [ 107., 60., 55., 11449., 3600., 3025. ]
      - [ 60., 28., 27., 3600., 784., 729. ]
      - [ 111., 58., 54., 12321., 3364., 2916. ]
      - [ 55., 28., 35., 3025., 784., 1225. ]
      - [ 127., 72., 69., 16129., 5184., 4761. ]
      - [ 35., 17., 17., 1225., 289., 289. ]
      - [ 97., 51., 51., 9409., 2601., 2601. ]
      - [ 75., 31., 31., 5625., 961., 961. ]
      - [ 103., 54., 55., 10609., 2916., 3025. ]
      - [ 125., 72., 68., 15625., 5184., 4624. ]
      - [ 106., 61., 58., 11236., 3721., 3364. ]
      - [ 26., 13., 9., 676., 169., 81. ]
      - [ 68., 32., 32., 4624., 1024., 1024. ]
      - [ 81., 44., 40., 6561., 1936., 1600. ]
      - [ 3., 1., 2., 9., 1., 4. ]
      - [ 87., 45., 52., 7569., 2025., 2704. ]
      - [ 30., 13., 10., 900., 169., 100. ]
      - [ 20., 9., 5., 400., 81., 25. ]
      - [ 17., 8., 6., 289., 64., 36. ]
      - [ 52., 20., 18., 2704., 400., 324. ]
      - [ 25., 11., 10., 625., 121., 100. ]
      - [ 65., 31., 35., 4225., 961., 1225. ]
      - [ 77., 34., 31., 5929., 1156., 961. ]
      - [ 91., 46., 43., 8281., 2116., 1849. ]
      - [ 112., 63., 59., 12544., 3969., 3481. ]
      - [ 23., 13., 13., 529., 169., 169. ]
      - [ 100., 51., 47., 10000., 2601., 2209. ]
      - [ 50., 20., 18., 2500., 400., 324. ]
      - [ 104., 54., 52., 10816., 2916., 2704. ]
      - [ 102., 58., 53., 10404., 3364., 2809. ]
      - [ 108., 61., 56., 11664., 3721., 3136. ]
      - [ 45., 18., 15., 2025., 324., 225. ]
      - [ 58., 28., 44., 3364., 784., 1936. ]
      - [ 81., 39., 34., 6561., 1521., 1156. ]
      - [ 29., 13., 12., 841., 169., 144. ]
      - [ 26., 13., 16., 676., 169., 256. ]
      - [ 88., 50., 49., 7744., 2500., 2401. ]
      - [ 114., 63., 59., 12996., 3969., 3481. ]
      - [ 115., 64., 60., 13225., 4096., 3600. ]
      - [ 105., 58., 54., 11025., 3364., 2916. ]
      - [ 49., 25., 23., 2401., 625., 529. ]
      - [ 106., 59., 55., 11236., 3481., 3025. ]
      - [ 70., 40., 38., 4900., 1600., 1444. ]
      - [ 49., 28., 25., 2401., 784., 625. ]
      - [ 57., 27., 25., 3249., 729., 625. ]
      - [ 81., 47., 45., 6561., 2209., 2025. ]
      - [ 40., 22., 22., 1600., 484., 484. ]
      - [ 109., 62., 58., 11881., 3844., 3364. ]
      - [ 86., 50., 49., 7396., 2500., 2401. ]
      - [ 116., 65., 60., 13456., 4225., 3600. ]
      - [ 117., 64., 60., 13689., 4096., 3600. ]
      - [ 33., 12., 16., 1089., 144., 256. ]
      - [ 25., 13., 12., 625., 169., 144. ]
      - [ 24., 10., 9., 576., 100., 81. ]
      - [ 51., 21., 19., 2601., 441., 361. ]
      - [ 33., 19., 18., 1089., 361., 324. ]
      - [ 30., 16., 15., 900., 256., 225. ]
      - [ 55., 28., 43., 3025., 784., 1849. ]
      - [ 30., 14., 13., 900., 196., 169. ]
      - [ 21., 9., 8., 441., 81., 64. ]
      - [ 78., 33., 30., 6084., 1089., 900. ]
      - [ 107., 60., 56., 11449., 3600., 3136. ]
      - [ 113., 64., 59., 12769., 4096., 3481. ]
      - [ 27., 13., 12., 729., 169., 144. ]
      - [ 40., 20., 26., 1600., 400., 676. ]
      - [ 36., 19., 22., 1296., 361., 484. ]
      - [ 115., 66., 61., 13225., 4356., 3721. ]
      - [ 25., 9., 8., 625., 81., 64. ]
      - [ 62., 28., 38., 3844., 784., 1444. ]
      - [ 24., 11., 12., 576., 121., 144. ]
      - [ 116., 65., 61., 13456., 4225., 3721. ]
      - [ 77., 31., 32., 5929., 961., 1024. ]
      - [ 110., 58., 56., 12100., 3364., 3136. ]
      - [ 37., 16., 13., 1369., 256., 169. ]
      - [ 96., 53., 54., 9216., 2809., 2916. ]
      - [ 107., 63., 58., 11449., 3969., 3364. ]
      - [ 23., 9., 8., 529., 81., 64. ]
      - [ 108., 61., 57., 11664., 3721., 3249. ]
      - [ 89., 49., 49., 7921., 2401., 2401. ]
      - [ 100., 54., 55., 10000., 2916., 3025. ]
      - [ 29., 12., 13., 841., 144., 169. ]
      - [ 4., 0., 1., 16., 0., 1. ]
      - [ 62., 35., 36., 3844., 1225., 1296. ]
      - [ 69., 29., 28., 4761., 841., 784. ]
      - [ 73., 29., 29., 5329., 841., 841. ]
      - [ 101., 53., 51., 10201., 2809., 2601. ]
      - [ 72., 32., 31., 5184., 1024., 961. ]
      - [ 114., 65., 60., 12996., 4225., 3600. ]
      - [ 22., 7., 10., 484., 49., 100. ]
      - [ 32., 16., 15., 1024., 256., 225. ]
      - [ 24., 11., 7., 576., 121., 49. ]
      - [ 65., 27., 32., 4225., 729., 1024. ]
      - [ 39., 16., 18., 1521., 256., 324. ]
      - [ 14., 5., 5., 196., 25., 25. ]
      - [ 68., 38., 37., 4624., 1444., 1369. ]
      - [ 60., 29., 38., 3600., 841., 1444. ]
      - [ 96., 51., 48., 9216., 2601., 2304. ]
      - [ 93., 48., 45., 8649., 2304., 2025. ]
      - [ 46., 23., 25., 2116., 529., 625. ]
      - [ 26., 12., 11., 676., 144., 121. ]
      - [ 118., 65., 61., 13924., 4225., 3721. ]
      - [ 114., 62., 60., 12996., 3844., 3600. ]
      - [ 34., 15., 19., 1156., 225., 361. ]
      - [ 82., 49., 51., 6724., 2401., 2601. ]
      - [ 26., 11., 7., 676., 121., 49. ]
      - [ 39., 14., 15., 1521., 196., 225. ]
      - [ 110., 60., 58., 12100., 3600., 3364. ]
      - [ 2., 0., 1., 4., 0., 1. ]
      - [ 29., 14., 17., 841., 196., 289. ]
      - [ 113., 66., 61., 12769., 4356., 3721. ]
      - [ 29., 12., 9., 841., 144., 81. ]
      - [ 21., 8., 9., 441., 64., 81. ]
      - [ 16., 6., 8., 256., 36., 64. ]
      - [ 23., 8., 9., 529., 64., 81. ]
      - [ 114., 51., 58., 12996., 2601., 3364. ]
      - [ 116., 49., 57., 13456., 2401., 3249. ]
      - [ 140., 66., 72., 19600., 4356., 5184. ]
      - [ 97., 43., 48., 9409., 1849., 2304. ]
      - [ 39., 20., 22., 1521., 400., 484. ]
      - [ 102., 45., 48., 10404., 2025., 2304. ]
      - [ 128., 67., 64., 16384., 4489., 4096. ]
      - [ 124., 65., 68., 15376., 4225., 4624. ]
      - [ 100., 47., 49., 10000., 2209., 2401. ]
      - [ 123., 62., 60., 15129., 3844., 3600. ]
      - [ 72., 36., 36., 5184., 1296., 1296. ]
      - [ 35., 14., 22., 1225., 196., 484. ]
      - [ 32., 15., 22., 1024., 225., 484. ]
      - [ 69., 26., 27., 4761., 676., 729. ]
      - [ 122., 55., 63., 14884., 3025., 3969. ]
      - [ 129., 67., 67., 16641., 4489., 4489. ]
      - [ 121., 58., 65., 14641., 3364., 4225. ]
      - [ 130., 63., 71., 16900., 3969., 5041. ]
      - [ 108., 49., 52., 11664., 2401., 2704. ]
      - [ 42., 23., 25., 1764., 529., 625. ]
      - [ 69., 26., 26., 4761., 676., 676. ]
      - [ 104., 47., 50., 10816., 2209., 2500. ]
      - [ 120., 54., 52., 14400., 2916., 2704. ]
      - [ 89., 40., 42., 7921., 1600., 1764. ]
      - [ 145., 74., 73., 21025., 5476., 5329. ]
      - [ 123., 69., 74., 15129., 4761., 5476. ]
      - [ 44., 20., 18., 1936., 400., 324. ]
      - [ 82., 37., 41., 6724., 1369., 1681. ]
      - [ 109., 51., 50., 11881., 2601., 2500. ]
      - [ 127., 72., 75., 16129., 5184., 5625. ]
      - [ 25., 12., 15., 625., 144., 225. ]
      - [ 22., 12., 14., 484., 144., 196. ]
      - [ 20., 10., 10., 400., 100., 100. ]
      - [ 91., 38., 40., 8281., 1444., 1600. ]
      - [ 171., 87., 99., 29241., 7569., 9801. ]
      - [ 105., 47., 46., 11025., 2209., 2116. ]
      - [ 90., 37., 39., 8100., 1369., 1521. ]
      - [ 197., 102., 116., 38809., 10404., 13456. ]
      - [ 34., 17., 18., 1156., 289., 324. ]
      - [ 73., 37., 37., 5329., 1369., 1369. ]
      - [ 29., 10., 14., 841., 100., 196. ]
      - [ 86., 37., 39., 7396., 1369., 1521. ]
      - [ 103., 47., 46., 10609., 2209., 2116. ]
      - [ 125., 65., 63., 15625., 4225., 3969. ]
      - [ 117., 58., 61., 13689., 3364., 3721. ]
      - [ 100., 43., 46., 10000., 1849., 2116. ]
      - [ 52., 25., 26., 2704., 625., 676. ]
      - [ 95., 41., 40., 9025., 1681., 1600. ]
      - [ 105., 53., 51., 11025., 2809., 2601. ]
      - [ 107., 45., 48., 11449., 2025., 2304. ]
      - [ 142., 68., 77., 20164., 4624., 5929. ]
      - [ 164., 83., 95., 26896., 6889., 9025. ]
      - [ 120., 57., 61., 14400., 3249., 3721. ]
      - [ 159., 89., 85., 25281., 7921., 7225. ]
      - [ 113., 51., 44., 12769., 2601., 1936. ]
      - [ 107., 51., 50., 11449., 2601., 2500. ]
      - [ 113., 56., 58., 12769., 3136., 3364. ]
      - [ 101., 51., 49., 10201., 2601., 2401. ]
      - [ 148., 73., 82., 21904., 5329., 6724. ]
      - [ 172., 88., 100., 29584., 7744., 10000. ]
      - [ 101., 52., 48., 10201., 2704., 2304. ]
      - [ 150., 70., 80., 22500., 4900., 6400. ]
      - [ 82., 42., 42., 6724., 1764., 1764. ]
      - [ 149., 83., 81., 22201., 6889., 6561. ]
      - [ 143., 80., 83., 20449., 6400., 6889. ]
      - [ 79., 39., 39., 6241., 1521., 1521. ]
      - [ 150., 84., 83., 22500., 7056., 6889. ]
      - [ 120., 54., 58., 14400., 2916., 3364. ]
      - [ 111., 57., 56., 12321., 3249., 3136. ]
      - [ 152., 81., 77., 23104., 6561., 5929. ]
      - [ 141., 66., 75., 19881., 4356., 5625. ]
      - [ 102., 44., 43., 10404., 1936., 1849. ]
      - [ 138., 66., 68., 19044., 4356., 4624. ]
      - [ 161., 93., 92., 25921., 8649., 8464. ]
      - [ 128., 60., 65., 16384., 3600., 4225. ]
      - [ 132., 65., 66., 17424., 4225., 4356. ]
      - [ 103., 53., 51., 10609., 2809., 2601. ]
      - [ 143., 70., 76., 20449., 4900., 5776. ]
      - [ 152., 86., 90., 23104., 7396., 8100. ]
      - [ 104., 46., 45., 10816., 2116., 2025. ]
      - [ 151., 88., 91., 22801., 7744., 8281. ]
      - [ 121., 59., 62., 14641., 3481., 3844. ]
      - [ 145., 74., 82., 21025., 5476., 6724. ]
      - [ 154., 77., 86., 23716., 5929., 7396. ]
      - [ 138., 69., 70., 19044., 4761., 4900. ]
      - [ 120., 58., 58., 14400., 3364., 3364. ]
      - [ 77., 33., 28., 5929., 1089., 784. ]
      - [ 110., 57., 58., 12100., 3249., 3364. ]
      - [ 67., 29., 28., 4489., 841., 784. ]
      - [ 92., 46., 47., 8464., 2116., 2209. ]
      - [ 132., 63., 64., 17424., 3969., 4096. ]
      - [ 149., 72., 81., 22201., 5184., 6561. ]
      - [ 101., 52., 54., 10201., 2704., 2916. ]
      - [ 168., 86., 96., 28224., 7396., 9216. ]
      - [ 196., 103., 112., 38416., 10609., 12544. ]
      - [ 63., 29., 28., 3969., 841., 784. ]
      - [ 143., 69., 78., 20449., 4761., 6084. ]
      - [ 187., 99., 103., 34969., 9801., 10609. ]
      - [ 109., 54., 57., 11881., 2916., 3249. ]
      - [ 130., 60., 64., 16900., 3600., 4096. ]
      - [ 157., 72., 80., 24649., 5184., 6400. ]
      - [ 58., 31., 29., 3364., 961., 841. ]
      - [ 160., 82., 85., 25600., 6724., 7225. ]
      - [ 158., 92., 91., 24964., 8464., 8281. ]
      - [ 189., 96., 105., 35721., 9216., 11025. ]
      - [ 44., 21., 23., 1936., 441., 529. ]
      - [ 71., 33., 32., 5041., 1089., 1024. ]
      - [ 185., 105., 108., 34225., 11025., 11664. ]
      - [ 127., 62., 63., 16129., 3844., 3969. ]
      - [ 148., 77., 85., 21904., 5929., 7225. ]
      - [ 137., 68., 69., 18769., 4624., 4761. ]
      - [ 249., 135., 147., 62001., 18225., 21609. ]
      - [ 147., 69., 72., 21609., 4761., 5184. ]
      - [ 178., 96., 102., 31684., 9216., 10404. ]
      - [ 195., 100., 109., 38025., 10000., 11881. ]
      - [ 5., 3., 4., 25., 9., 16. ]
      - [ 145., 81., 79., 21025., 6561., 6241. ]
      - [ 209., 109., 119., 43681., 11881., 14161. ]
      - [ 13., 4., 4., 169., 16., 16. ]
      - [ 72., 28., 29., 5184., 784., 841. ]
      - [ 126., 62., 69., 15876., 3844., 4761. ]
      - [ 248., 151., 167., 61504., 22801., 27889. ]
      - [ 116., 56., 62., 13456., 3136., 3844. ]
      - [ 187., 98., 105., 34969., 9604., 11025. ]
      - [ 255., 152., 168., 65025., 23104., 28224. ]
      - [ 165., 80., 87., 27225., 6400., 7569. ]
      - [ 78., 35., 32., 6084., 1225., 1024. ]
      - [ 74., 30., 31., 5476., 900., 961. ]
      - [ 110., 54., 53., 12100., 2916., 2809. ]
      - [ 255., 156., 171., 65025., 24336., 29241. ]
      - [ 122., 57., 58., 14884., 3249., 3364. ]
      - [ 255., 175., 196., 65025., 30625., 38416. ]
      - [ 195., 104., 112., 38025., 10816., 12544. ]
      - [ 112., 58., 57., 12544., 3364., 3249. ]
      - [ 38., 15., 17., 1444., 225., 289. ]
      - [ 12., 5., 7., 144., 25., 49. ]
      - [ 185., 93., 105., 34225., 8649., 11025. ]
      - [ 131., 63., 67., 17161., 3969., 4489. ]
      - [ 16., 7., 7., 256., 49., 49. ]
      - [ 168., 85., 95., 28224., 7225., 9025. ]
      - [ 148., 76., 76., 21904., 5776., 5776. ]
      - [ 135., 65., 70., 18225., 4225., 4900. ]
      - [ 198., 100., 109., 39204., 10000., 11881. ]
      - [ 122., 71., 72., 14884., 5041., 5184. ]
      - [ 205., 101., 112., 42025., 10201., 12544. ]
      - [ 139., 73., 78., 19321., 5329., 6084. ]
      - [ 164., 82., 92., 26896., 6724., 8464. ]
      - [ 138., 73., 74., 19044., 5329., 5476. ]
      - [ 37., 18., 25., 1369., 324., 625. ]
      - [ 174., 88., 99., 30276., 7744., 9801. ]
      - [ 114., 53., 53., 12996., 2809., 2809. ]
      - [ 96., 47., 49., 9216., 2209., 2401. ]
      - [ 22., 9., 10., 484., 81., 100. ]
      - [ 178., 105., 107., 31684., 11025., 11449. ]
      - [ 164., 88., 85., 26896., 7744., 7225. ]
      - [ 187., 97., 108., 34969., 9409., 11664. ]
      - [ 72., 33., 36., 5184., 1089., 1296. ]
      - [ 184., 95., 103., 33856., 9025., 10609. ]
      - [ 130., 59., 67., 16900., 3481., 4489. ]
      - [ 105., 56., 57., 11025., 3136., 3249. ]
      - [ 93., 43., 48., 8649., 1849., 2304. ]
      - [ 173., 96., 97., 29929., 9216., 9409. ]
      - [ 110., 48., 51., 12100., 2304., 2601. ]
      - [ 187., 107., 108., 34969., 11449., 11664. ]
      - [ 155., 76., 83., 24025., 5776., 6889. ]
      - [ 73., 32., 35., 5329., 1024., 1225. ]
      - [ 152., 76., 82., 23104., 5776., 6724. ]
      - [ 46., 24., 30., 2116., 576., 900. ]
      - [ 170., 90., 93., 28900., 8100., 8649. ]
      - [ 123., 55., 59., 15129., 3025., 3481. ]
      - [ 157., 78., 85., 24649., 6084., 7225. ]
      - [ 47., 22., 30., 2209., 484., 900. ]
      - [ 87., 43., 47., 7569., 1849., 2209. ]
      - [ 196., 101., 115., 38416., 10201., 13225. ]
      - [ 207., 120., 122., 42849., 14400., 14884. ]
      - [ 115., 49., 53., 13225., 2401., 2809. ]
      - [ 89., 46., 47., 7921., 2116., 2209. ]
      - [ 37., 19., 24., 1369., 361., 576. ]
      - [ 152., 79., 85., 23104., 6241., 7225. ]
      - [ 73., 42., 44., 5329., 1764., 1936. ]
      - [ 129., 63., 68., 16641., 3969., 4624. ]
      - [ 155., 79., 84., 24025., 6241., 7056. ]
      - [ 68., 28., 33., 4624., 784., 1089. ]
      - [ 153., 79., 84., 23409., 6241., 7056. ]
      - [ 59., 27., 26., 3481., 729., 676. ]
      - [ 63., 25., 30., 3969., 625., 900. ]
      - [ 108., 50., 49., 11664., 2500., 2401. ]
      - [ 123., 61., 64., 15129., 3721., 4096. ]
      - [ 143., 82., 82., 20449., 6724., 6724. ]
      - [ 112., 50., 53., 12544., 2500., 2809. ]
      - [ 116., 54., 57., 13456., 2916., 3249. ]
      - [ 49., 20., 23., 2401., 400., 529. ]
      - [ 110., 55., 57., 12100., 3025., 3249. ]
      - [ 89., 46., 43., 7921., 2116., 1849. ]
      - [ 32., 14., 14., 1024., 196., 196. ]
      - [ 116., 62., 61., 13456., 3844., 3721. ]
      - [ 165., 94., 93., 27225., 8836., 8649. ]
      - [ 124., 61., 64., 15376., 3721., 4096. ]
      - [ 106., 53., 55., 11236., 2809., 3025. ]
      - [ 126., 60., 64., 15876., 3600., 4096. ]
      - [ 123., 57., 61., 15129., 3249., 3721. ]
      - [ 161., 83., 94., 25921., 6889., 8836. ]
      - [ 37., 17., 23., 1369., 289., 529. ]
      - [ 106., 57., 59., 11236., 3249., 3481. ]
      - [ 84., 41., 41., 7056., 1681., 1681. ]
      - [ 34., 17., 24., 1156., 289., 576. ]
      - [ 109., 55., 54., 11881., 3025., 2916. ]
      - [ 119., 61., 60., 14161., 3721., 3600. ]
      - [ 116., 54., 54., 13456., 2916., 2916. ]
      - [ 111., 54., 57., 12321., 2916., 3249. ]
      - [ 36., 17., 24., 1296., 289., 576. ]
      - [ 118., 52., 56., 13924., 2704., 3136. ]
      - [ 97., 53., 54., 9409., 2809., 2916. ]
      - [ 95., 51., 51., 9025., 2601., 2601. ]
      - [ 58., 24., 23., 3364., 576., 529. ]
      - [ 40., 18., 18., 1600., 324., 324. ]
      - [ 31., 11., 11., 961., 121., 121. ]
      - [ 111., 49., 52., 12321., 2401., 2704. ]
      - [ 120., 57., 60., 14400., 3249., 3600. ]
      - [ 38., 16., 16., 1444., 256., 256. ]
      - [ 18., 5., 6., 324., 25., 36. ]
      - [ 103., 58., 55., 10609., 3364., 3025. ]
      - [ 32., 12., 18., 1024., 144., 324. ]
      - [ 98., 42., 48., 9604., 1764., 2304. ]
      - [ 103., 49., 48., 10609., 2401., 2304. ]
      - [ 97., 56., 59., 9409., 3136., 3481. ]
      - [ 76., 38., 38., 5776., 1444., 1444. ]
      - [ 106., 62., 57., 11236., 3844., 3249. ]
      - [ 127., 76., 77., 16129., 5776., 5929. ]
      - [ 109., 52., 54., 11881., 2704., 2916. ]
      - [ 51., 22., 25., 2601., 484., 625. ]
      - [ 82., 43., 46., 6724., 1849., 2116. ]
      - [ 111., 48., 52., 12321., 2304., 2704. ]
      - [ 92., 43., 45., 8464., 1849., 2025. ]
      - [ 79., 36., 37., 6241., 1296., 1369. ]
      - [ 59., 22., 25., 3481., 484., 625. ]
      - [ 99., 46., 48., 9801., 2116., 2304. ]
      - [ 42., 15., 16., 1764., 225., 256. ]
      - [ 103., 46., 49., 10609., 2116., 2401. ]
      - [ 17., 4., 5., 289., 16., 25. ]
      - [ 62., 29., 31., 3844., 841., 961. ]
      - [ 101., 46., 49., 10201., 2116., 2401. ]
      - [ 35., 18., 15., 1225., 324., 225. ]
      - [ 56., 28., 33., 3136., 784., 1089. ]
      - [ 148., 83., 84., 21904., 6889., 7056. ]
      - [ 94., 51., 51., 8836., 2601., 2601. ]
      - [ 86., 42., 43., 7396., 1764., 1849. ]
      - [ 98., 41., 44., 9604., 1681., 1936. ]
      - [ 41., 20., 17., 1681., 400., 289. ]
      - [ 53., 25., 30., 2809., 625., 900. ]
      - [ 70., 29., 32., 4900., 841., 1024. ]
      - [ 98., 39., 41., 9604., 1521., 1681. ]
      - [ 161., 93., 91., 25921., 8649., 8281. ]
      - [ 149., 87., 90., 22201., 7569., 8100. ]
      - [ 108., 59., 60., 11664., 3481., 3600. ]
      - [ 86., 35., 37., 7396., 1225., 1369. ]
      - [ 43., 19., 11., 1849., 361., 121. ]
      - [ 120., 67., 68., 14400., 4489., 4624. ]
      - [ 123., 70., 71., 15129., 4900., 5041. ]
      - [ 74., 38., 38., 5476., 1444., 1444. ]
      - [ 92., 37., 39., 8464., 1369., 1521. ]
      - [ 75., 38., 41., 5625., 1444., 1681. ]
      - [ 46., 17., 20., 2116., 289., 400. ]
      - [ 103., 44., 46., 10609., 1936., 2116. ]
      - [ 77., 33., 37., 5929., 1089., 1369. ]
      - [ 105., 59., 60., 11025., 3481., 3600. ]
      - [ 153., 89., 87., 23409., 7921., 7569. ]
      - [ 10., 1., 1., 100., 1., 1. ]
      - [ 22., 9., 4., 484., 81., 16. ]
      - [ 104., 58., 59., 10816., 3364., 3481. ]
      - [ 104., 53., 54., 10816., 2809., 2916. ]
      - [ 112., 61., 63., 12544., 3721., 3969. ]
      - [ 96., 37., 39., 9216., 1369., 1521. ]
      - [ 112., 59., 60., 12544., 3481., 3600. ]
      - [ 62., 24., 24., 3844., 576., 576. ]
      - [ 153., 88., 89., 23409., 7744., 7921. ]
      - [ 63., 31., 30., 3969., 961., 900. ]
      - [ 157., 85., 87., 24649., 7225., 7569. ]
      - [ 114., 63., 64., 12996., 3969., 4096. ]
      - [ 65., 34., 36., 4225., 1156., 1296. ]
      - [ 113., 60., 61., 12769., 3600., 3721. ]
      - [ 100., 42., 41., 10000., 1764., 1681. ]
      - [ 64., 30., 28., 4096., 900., 784. ]
      - [ 31., 12., 14., 961., 144., 196. ]
      - [ 101., 55., 56., 10201., 3025., 3136. ]
      - [ 97., 44., 41., 9409., 1936., 1681. ]
      - [ 96., 41., 38., 9216., 1681., 1444. ]
      - [ 111., 63., 61., 12321., 3969., 3721. ]
      - [ 160., 88., 90., 25600., 7744., 8100. ]
      - [ 58., 25., 27., 3364., 625., 729. ]
      - [ 80., 39., 42., 6400., 1521., 1764. ]
      - [ 91., 36., 38., 8281., 1296., 1444. ]
      - [ 30., 15., 18., 900., 225., 324. ]
      - [ 96., 52., 53., 9216., 2704., 2809. ]
      - [ 51., 25., 23., 2601., 625., 529. ]
      - [ 58., 27., 29., 3364., 729., 841. ]
      - [ 6., 1., 4., 36., 1., 16. ]
      - [ 136., 74., 74., 18496., 5476., 5476. ]
      - [ 50., 24., 22., 2500., 576., 484. ]
      - [ 28., 8., 14., 784., 64., 196. ]
      - [ 75., 37., 37., 5625., 1369., 1369. ]
      - [ 40., 19., 21., 1600., 361., 441. ]
      - [ 43., 17., 15., 1849., 289., 225. ]
      - [ 121., 68., 65., 14641., 4624., 4225. ]
      - [ 96., 39., 42., 9216., 1521., 1764. ]
      - [ 84., 33., 34., 7056., 1089., 1156. ]
      - [ 98., 54., 55., 9604., 2916., 3025. ]
      - [ 30., 10., 16., 900., 100., 256. ]
      - [ 107., 58., 60., 11449., 3364., 3600. ]
      - [ 45., 20., 21., 2025., 400., 441. ]
      - [ 84., 31., 32., 7056., 961., 1024. ]
      - [ 121., 63., 62., 14641., 3969., 3844. ]
      - [ 98., 55., 56., 9604., 3025., 3136. ]
      - [ 121., 65., 64., 14641., 4225., 4096. ]
      - [ 72., 30., 27., 5184., 900., 729. ]
      - [ 99., 56., 57., 9801., 3136., 3249. ]
      - [ 43., 20., 22., 1849., 400., 484. ]
      - [ 34., 11., 13., 1156., 121., 169. ]
      - [ 141., 80., 80., 19881., 6400., 6400. ]
      - [ 102., 42., 39., 10404., 1764., 1521. ]
      - [ 130., 69., 66., 16900., 4761., 4356. ]
      - [ 76., 29., 33., 5776., 841., 1089. ]
      - [ 138., 80., 79., 19044., 6400., 6241. ]
      - [ 80., 35., 39., 6400., 1225., 1521. ]
      - [ 81., 32., 34., 6561., 1024., 1156. ]
      - [ 106., 52., 51., 11236., 2704., 2601. ]
      - [ 95., 46., 47., 9025., 2116., 2209. ]
      - [ 36., 11., 12., 1296., 121., 144. ]
      - [ 71., 38., 40., 5041., 1444., 1600. ]
      - [ 85., 51., 50., 7225., 2601., 2500. ]
      - [ 139., 80., 83., 19321., 6400., 6889. ]
      - [ 118., 68., 73., 13924., 4624., 5329. ]
      - [ 38., 16., 22., 1444., 256., 484. ]
      - [ 73., 35., 34., 5329., 1225., 1156. ]
      - [ 95., 38., 40., 9025., 1444., 1600. ]
      - [ 47., 21., 19., 2209., 441., 361. ]
      - [ 112., 61., 62., 12544., 3721., 3844. ]
      - [ 56., 29., 30., 3136., 841., 900. ]
      - [ 152., 87., 88., 23104., 7569., 7744. ]
      - [ 117., 54., 57., 13689., 2916., 3249. ]
      - [ 108., 53., 55., 11664., 2809., 3025. ]
      - [ 105., 59., 59., 11025., 3481., 3481. ]
      - [ 77., 28., 29., 5929., 784., 841. ]
      - [ 42., 26., 25., 1764., 676., 625. ]
      - [ 149., 89., 95., 22201., 7921., 9025. ]
      - [ 35., 16., 13., 1225., 256., 169. ]
      - [ 45., 17., 20., 2025., 289., 400. ]
      - [ 52., 20., 24., 2704., 400., 576. ]
      - [ 143., 78., 79., 20449., 6084., 6241. ]
      - [ 57., 25., 29., 3249., 625., 841. ]
      - [ 129., 67., 70., 16641., 4489., 4900. ]
      - [ 74., 32., 50., 5476., 1024., 2500. ]
      - [ 44., 16., 19., 1936., 256., 361. ]
      - [ 99., 40., 42., 9801., 1600., 1764. ]
      - [ 76., 30., 31., 5776., 900., 961. ]
      - [ 119., 58., 58., 14161., 3364., 3364. ]
      - [ 98., 42., 41., 9604., 1764., 1681. ]
      - [ 49., 22., 20., 2401., 484., 400. ]
      - [ 86., 46., 46., 7396., 2116., 2116. ]
      - [ 66., 36., 34., 4356., 1296., 1156. ]
      - [ 127., 73., 78., 16129., 5329., 6084. ]
      - [ 85., 34., 36., 7225., 1156., 1296. ]
      - [ 142., 77., 78., 20164., 5929., 6084. ]
      - [ 141., 79., 79., 19881., 6241., 6241. ]
      - [ 153., 87., 86., 23409., 7569., 7396. ]
      - [ 125., 70., 72., 15625., 4900., 5184. ]
      - [ 50., 27., 31., 2500., 729., 961. ]
      - [ 35., 12., 14., 1225., 144., 196. ]
      - [ 53., 21., 25., 2809., 441., 625. ]
      - [ 114., 55., 57., 12996., 3025., 3249. ]
      - [ 51., 28., 32., 2601., 784., 1024. ]
      - [ 115., 54., 54., 13225., 2916., 2916. ]
      - [ 46., 19., 17., 2116., 361., 289. ]
      - [ 97., 44., 46., 9409., 1936., 2116. ]
      - [ 114., 48., 52., 12996., 2304., 2704. ]
      - [ 109., 46., 49., 11881., 2116., 2401. ]
      - [ 97., 41., 40., 9409., 1681., 1600. ]
      - [ 88., 43., 40., 7744., 1849., 1600. ]
      - [ 161., 93., 98., 25921., 8649., 9604. ]
      - [ 53., 26., 23., 2809., 676., 529. ]
      - [ 93., 39., 38., 8649., 1521., 1444. ]
      - [ 130., 69., 67., 16900., 4761., 4489. ]
      - [ 165., 95., 100., 27225., 9025., 10000. ]
      - [ 115., 58., 60., 13225., 3364., 3600. ]
      - [ 147., 81., 80., 21609., 6561., 6400. ]
      - [ 125., 66., 68., 15625., 4356., 4624. ]
      - [ 96., 40., 39., 9216., 1600., 1521. ]
      - [ 59., 29., 28., 3481., 841., 784. ]
      - [ 44., 17., 18., 1936., 289., 324. ]
      - [ 39., 17., 23., 1521., 289., 529. ]
      - [ 58., 30., 33., 3364., 900., 1089. ]
      - [ 52., 22., 21., 2704., 484., 441. ]
      - [ 168., 98., 103., 28224., 9604., 10609. ]
      - [ 140., 84., 90., 19600., 7056., 8100. ]
      - [ 162., 94., 92., 26244., 8836., 8464. ]
      - [ 150., 84., 82., 22500., 7056., 6724. ]
      - [ 123., 71., 69., 15129., 5041., 4761. ]
      - [ 163., 97., 90., 26569., 9409., 8100. ]
      - [ 78., 30., 28., 6084., 900., 784. ]
      - [ 167., 101., 100., 27889., 10201., 10000. ]
      - [ 120., 68., 66., 14400., 4624., 4356. ]
      - [ 12., 2., 4., 144., 4., 16. ]
      - [ 28., 7., 9., 784., 49., 81. ]
      - [ 117., 55., 59., 13689., 3025., 3481. ]
      - [ 111., 47., 56., 12321., 2209., 3136. ]
      - [ 150., 88., 88., 22500., 7744., 7744. ]
      - [ 55., 21., 20., 3025., 441., 400. ]
      - [ 36., 12., 10., 1296., 144., 100. ]
      - [ 53., 21., 20., 2809., 441., 400. ]
      - [ 63., 35., 36., 3969., 1225., 1296. ]
      - [ 93., 36., 38., 8649., 1296., 1444. ]
      - [ 28., 10., 10., 784., 100., 100. ]
      - [ 121., 53., 57., 14641., 2809., 3249. ]
      - [ 80., 42., 41., 6400., 1764., 1681. ]
      - [ 160., 92., 91., 25600., 8464., 8281. ]
      - [ 46., 16., 15., 2116., 256., 225. ]
      - [ 34., 15., 12., 1156., 225., 144. ]
      - [ 81., 30., 31., 6561., 900., 961. ]
      - [ 169., 96., 98., 28561., 9216., 9604. ]
      - [ 112., 67., 64., 12544., 4489., 4096. ]
      - [ 125., 61., 59., 15625., 3721., 3481. ]
      - [ 30., 13., 16., 900., 169., 256. ]
      - [ 130., 62., 67., 16900., 3844., 4489. ]
      - [ 65., 29., 28., 4225., 841., 784. ]
      - [ 170., 96., 102., 28900., 9216., 10404. ]
      - [ 116., 67., 63., 13456., 4489., 3969. ]
      - [ 122., 67., 64., 14884., 4489., 4096. ]
      - [ 35., 15., 21., 1225., 225., 441. ]
      - [ 157., 86., 85., 24649., 7396., 7225. ]
      - [ 155., 82., 88., 24025., 6724., 7744. ]
      - [ 66., 39., 40., 4356., 1521., 1600. ]
      - [ 154., 80., 86., 23716., 6400., 7396. ]
      - [ 52., 25., 22., 2704., 625., 484. ]
      - [ 86., 50., 50., 7396., 2500., 2500. ]
      - [ 74., 36., 35., 5476., 1296., 1225. ]
      - [ 33., 15., 15., 1089., 225., 225. ]
      - [ 44., 15., 18., 1936., 225., 324. ]
      - [ 129., 61., 60., 16641., 3721., 3600. ]
      - [ 90., 56., 54., 8100., 3136., 2916. ]
      - [ 138., 68., 73., 19044., 4624., 5329. ]
      - [ 151., 85., 89., 22801., 7225., 7921. ]
      - [ 147., 81., 85., 21609., 6561., 7225. ]
      - [ 122., 63., 66., 14884., 3969., 4356. ]
      - [ 184., 94., 105., 33856., 8836., 11025. ]
      - [ 162., 80., 87., 26244., 6400., 7569. ]
      - [ 194., 94., 109., 37636., 8836., 11881. ]
      - [ 53., 23., 21., 2809., 529., 441. ]
      - [ 112., 59., 61., 12544., 3481., 3721. ]
      - [ 191., 99., 111., 36481., 9801., 12321. ]
      - [ 149., 82., 83., 22201., 6724., 6889. ]
      - [ 118., 51., 52., 13924., 2601., 2704. ]
      - [ 145., 88., 90., 21025., 7744., 8100. ]
      - [ 65., 31., 29., 4225., 961., 841. ]
      - [ 126., 67., 69., 15876., 4489., 4761. ]
      - [ 150., 76., 82., 22500., 5776., 6724. ]
      - [ 66., 30., 29., 4356., 900., 841. ]
      - [ 207., 108., 121., 42849., 11664., 14641. ]
      - [ 71., 27., 28., 5041., 729., 784. ]
      - [ 174., 100., 105., 30276., 10000., 11025. ]
      - [ 141., 73., 78., 19881., 5329., 6084. ]
      - [ 210., 107., 124., 44100., 11449., 15376. ]
      - [ 83., 32., 33., 6889., 1024., 1089. ]
      - [ 190., 116., 121., 36100., 13456., 14641. ]
      - [ 119., 70., 71., 14161., 4900., 5041. ]
      - [ 169., 96., 101., 28561., 9216., 10201. ]
      - [ 145., 72., 78., 21025., 5184., 6084. ]
      - [ 131., 61., 65., 17161., 3721., 4225. ]
      - [ 110., 56., 61., 12100., 3136., 3721. ]
      - [ 120., 55., 66., 14400., 3025., 4356. ]
      - [ 145., 70., 79., 21025., 4900., 6241. ]
      - [ 188., 98., 109., 35344., 9604., 11881. ]
      - [ 32., 16., 21., 1024., 256., 441. ]
      - [ 62., 25., 28., 3844., 625., 784. ]
      - [ 128., 59., 67., 16384., 3481., 4489. ]
      - [ 153., 77., 83., 23409., 5929., 6889. ]
      - [ 126., 78., 70., 15876., 6084., 4900. ]
      - [ 131., 61., 73., 17161., 3721., 5329. ]
      - [ 154., 75., 82., 23716., 5625., 6724. ]
      - [ 134., 66., 71., 17956., 4356., 5041. ]
      - [ 108., 56., 61., 11664., 3136., 3721. ]
      - [ 147., 74., 80., 21609., 5476., 6400. ]
      - [ 166., 93., 95., 27556., 8649., 9025. ]
      - [ 77., 38., 34., 5929., 1444., 1156. ]
      - [ 129., 60., 68., 16641., 3600., 4624. ]
      - [ 153., 71., 81., 23409., 5041., 6561. ]
      - [ 115., 64., 65., 13225., 4096., 4225. ]
      - [ 75., 31., 35., 5625., 961., 1225. ]
      - [ 164., 91., 93., 26896., 8281., 8649. ]
      - [ 28., 13., 16., 784., 169., 256. ]
      - [ 95., 43., 48., 9025., 1849., 2304. ]
      - [ 201., 105., 117., 40401., 11025., 13689. ]
      - [ 163., 80., 90., 26569., 6400., 8100. ]
      - [ 88., 44., 44., 7744., 1936., 1936. ]
      - [ 126., 77., 73., 15876., 5929., 5329. ]
      - [ 182., 92., 103., 33124., 8464., 10609. ]
      - [ 88., 35., 36., 7744., 1225., 1296. ]
      - [ 163., 95., 93., 26569., 9025., 8649. ]
      - [ 93., 40., 36., 8649., 1600., 1296. ]
      - [ 158., 82., 88., 24964., 6724., 7744. ]
      - [ 132., 64., 68., 17424., 4096., 4624. ]
      - [ 163., 91., 90., 26569., 8281., 8100. ]
      - [ 134., 65., 73., 17956., 4225., 5329. ]
      - [ 129., 62., 70., 16641., 3844., 4900. ]
      - [ 165., 93., 92., 27225., 8649., 8464. ]
      - [ 131., 77., 76., 17161., 5929., 5776. ]
      - [ 117., 54., 61., 13689., 2916., 3721. ]
      - [ 150., 73., 82., 22500., 5329., 6724. ]
      - [ 149., 74., 83., 22201., 5476., 6889. ]
      - [ 148., 68., 78., 21904., 4624., 6084. ]
      - [ 126., 71., 68., 15876., 5041., 4624. ]
      - [ 80., 40., 39., 6400., 1600., 1521. ]
      - [ 78., 38., 37., 6084., 1444., 1369. ]
      - [ 52., 20., 19., 2704., 400., 361. ]
      - [ 117., 54., 58., 13689., 2916., 3364. ]
      - [ 116., 53., 57., 13456., 2809., 3249. ]
      - [ 102., 48., 53., 10404., 2304., 2809. ]
      - [ 135., 65., 69., 18225., 4225., 4761. ]
      - [ 43., 16., 14., 1849., 256., 196. ]
      - [ 83., 39., 43., 6889., 1521., 1849. ]
      - [ 143., 72., 80., 20449., 5184., 6400. ]
      - [ 113., 51., 51., 12769., 2601., 2601. ]
      - [ 137., 66., 74., 18769., 4356., 5476. ]
      - [ 75., 36., 32., 5625., 1296., 1024. ]
      - [ 100., 46., 51., 10000., 2116., 2601. ]
      - [ 154., 74., 84., 23716., 5476., 7056. ]
      - [ 33., 17., 16., 1089., 289., 256. ]
      - [ 154., 88., 87., 23716., 7744., 7569. ]
      - [ 91., 42., 38., 8281., 1764., 1444. ]
      - [ 33., 18., 14., 1089., 324., 196. ]
      - [ 119., 57., 61., 14161., 3249., 3721. ]
      - [ 64., 23., 26., 4096., 529., 676. ]
      - [ 189., 101., 112., 35721., 10201., 12544. ]
      - [ 90., 45., 42., 8100., 2025., 1764. ]
      - [ 37., 16., 20., 1369., 256., 400. ]
      - [ 82., 39., 36., 6724., 1521., 1296. ]
      - [ 212., 115., 131., 44944., 13225., 17161. ]
      - [ 121., 59., 63., 14641., 3481., 3969. ]
      - [ 181., 93., 110., 32761., 8649., 12100. ]
      - [ 169., 84., 92., 28561., 7056., 8464. ]
      - [ 31., 14., 17., 961., 196., 289. ]
      - [ 115., 58., 55., 13225., 3364., 3025. ]
      - [ 160., 89., 88., 25600., 7921., 7744. ]
      - [ 126., 74., 72., 15876., 5476., 5184. ]
      - [ 51., 21., 20., 2601., 441., 400. ]
      - [ 129., 74., 70., 16641., 5476., 4900. ]
      - [ 151., 75., 81., 22801., 5625., 6561. ]
      - [ 49., 22., 19., 2401., 484., 361. ]
      - [ 186., 95., 108., 34596., 9025., 11664. ]
      - [ 220., 120., 137., 48400., 14400., 18769. ]
      - [ 134., 61., 63., 17956., 3721., 3969. ]
      - [ 159., 88., 87., 25281., 7744., 7569. ]
      - [ 114., 57., 59., 12996., 3249., 3481. ]
      - [ 111., 52., 55., 12321., 2704., 3025. ]
      - [ 147., 86., 83., 21609., 7396., 6889. ]
      - [ 138., 66., 76., 19044., 4356., 5776. ]
      - [ 89., 34., 36., 7921., 1156., 1296. ]
      - [ 42., 16., 14., 1764., 256., 196. ]
      - [ 148., 76., 78., 21904., 5776., 6084. ]
      - [ 114., 58., 57., 12996., 3364., 3249. ]
      - [ 87., 35., 33., 7569., 1225., 1089. ]
      - [ 131., 71., 69., 17161., 5041., 4761. ]
      - [ 28., 16., 15., 784., 256., 225. ]
      - [ 81., 33., 31., 6561., 1089., 961. ]
      - [ 155., 87., 85., 24025., 7569., 7225. ]
      - [ 144., 70., 79., 20736., 4900., 6241. ]
      - [ 107., 65., 62., 11449., 4225., 3844. ]
      - [ 149., 85., 84., 22201., 7225., 7056. ]
      - [ 106., 55., 51., 11236., 3025., 2601. ]
      - [ 32., 13., 20., 1024., 169., 400. ]
      - [ 156., 90., 89., 24336., 8100., 7921. ]
      - [ 90., 38., 36., 8100., 1444., 1296. ]
      - [ 52., 21., 16., 2704., 441., 256. ]
      - [ 56., 25., 20., 3136., 625., 400. ]
      - [ 36., 16., 16., 1296., 256., 256. ]
      - [ 140., 72., 76., 19600., 5184., 5776. ]
      - [ 129., 75., 74., 16641., 5625., 5476. ]
      - [ 87., 43., 44., 7569., 1849., 1936. ]
      - [ 32., 15., 11., 1024., 225., 121. ]
      - [ 96., 41., 44., 9216., 1681., 1936. ]
      - [ 89., 40., 36., 7921., 1600., 1296. ]
      - [ 106., 60., 60., 11236., 3600., 3600. ]
      - [ 33., 16., 12., 1089., 256., 144. ]
      - [ 59., 25., 23., 3481., 625., 529. ]
      - [ 123., 63., 61., 15129., 3969., 3721. ]
      - [ 32., 17., 13., 1024., 289., 169. ]
      - [ 61., 28., 30., 3721., 784., 900. ]
      - [ 28., 15., 10., 784., 225., 100. ]
      - [ 85., 40., 37., 7225., 1600., 1369. ]
      - [ 31., 14., 10., 961., 196., 100. ]
      - [ 117., 64., 61., 13689., 4096., 3721. ]
      - [ 146., 86., 84., 21316., 7396., 7056. ]
      - [ 41., 15., 20., 1681., 225., 400. ]
      - [ 33., 14., 11., 1089., 196., 121. ]
      - [ 99., 43., 42., 9801., 1849., 1764. ]
      - [ 150., 86., 85., 22500., 7396., 7225. ]
      - [ 31., 16., 12., 961., 256., 144. ]
      - [ 37., 15., 21., 1369., 225., 441. ]
      - [ 33., 14., 21., 1089., 196., 441. ]
      - [ 108., 55., 52., 11664., 3025., 2704. ]
      - [ 80., 31., 32., 6400., 961., 1024. ]
      - [ 88., 39., 35., 7744., 1521., 1225. ]
      - [ 29., 12., 19., 841., 144., 361. ]
      - [ 148., 87., 84., 21904., 7569., 7056. ]
      - [ 31., 17., 16., 961., 289., 256. ]
      - [ 116., 61., 58., 13456., 3721., 3364. ]
      - [ 117., 60., 57., 13689., 3600., 3249. ]
      - [ 29., 14., 10., 841., 196., 100. ]
      - [ 108., 45., 48., 11664., 2025., 2304. ]
      - [ 54., 24., 22., 2916., 576., 484. ]
      - [ 122., 65., 62., 14884., 4225., 3844. ]
      - [ 52., 23., 26., 2704., 529., 676. ]
      - [ 114., 57., 54., 12996., 3249., 2916. ]
      - [ 140., 78., 78., 19600., 6084., 6084. ]
      - [ 120., 65., 67., 14400., 4225., 4489. ]
      - [ 14., 3., 7., 196., 9., 49. ]
      - [ 74., 28., 28., 5476., 784., 784. ]
      - [ 96., 47., 42., 9216., 2209., 1764. ]
      - [ 86., 37., 33., 7396., 1369., 1089. ]
      - [ 12., 2., 6., 144., 4., 36. ]
      - [ 147., 83., 76., 21609., 6889., 5776. ]
      - [ 100., 50., 48., 10000., 2500., 2304. ]
      - [ 101., 58., 58., 10201., 3364., 3364. ]
      - [ 9., 0., 3., 81., 0., 9. ]
      - [ 99., 48., 49., 9801., 2304., 2401. ]
      - [ 103., 55., 53., 10609., 3025., 2809. ]
      - [ 77., 43., 41., 5929., 1849., 1681. ]
      - [ 136., 76., 74., 18496., 5776., 5476. ]
      - [ 101., 49., 47., 10201., 2401., 2209. ]
      - [ 43., 20., 28., 1849., 400., 784. ]
      - [ 89., 37., 35., 7921., 1369., 1225. ]
      - [ 121., 71., 69., 14641., 5041., 4761. ]
      - [ 103., 56., 52., 10609., 3136., 2704. ]
      - [ 142., 81., 79., 20164., 6561., 6241. ]
      - [ 57., 23., 22., 3249., 529., 484. ]
      - [ 70., 32., 31., 4900., 1024., 961. ]
      - [ 22., 10., 9., 484., 100., 81. ]
      - [ 24., 12., 11., 576., 144., 121. ]
      - [ 82., 39., 39., 6724., 1521., 1521. ]
      - [ 100., 49., 45., 10000., 2401., 2025. ]
      - [ 102., 54., 52., 10404., 2916., 2704. ]
      - [ 82., 42., 41., 6724., 1764., 1681. ]
      - [ 118., 67., 68., 13924., 4489., 4624. ]
      - [ 55., 23., 21., 3025., 529., 441. ]
      - [ 128., 72., 71., 16384., 5184., 5041. ]
      - [ 98., 48., 46., 9604., 2304., 2116. ]
      - [ 101., 50., 45., 10201., 2500., 2025. ]
      - [ 92., 42., 40., 8464., 1764., 1600. ]
      - [ 118., 71., 67., 13924., 5041., 4489. ]
      - [ 47., 23., 29., 2209., 529., 841. ]
      - [ 142., 81., 78., 20164., 6561., 6084. ]
      - [ 119., 66., 63., 14161., 4356., 3969. ]
      - [ 80., 32., 30., 6400., 1024., 900. ]
      - [ 79., 35., 30., 6241., 1225., 900. ]
      - [ 33., 18., 19., 1089., 324., 361. ]
      - [ 43., 23., 23., 1849., 529., 529. ]
      - [ 127., 70., 66., 16129., 4900., 4356. ]
      - [ 82., 40., 35., 6724., 1600., 1225. ]
      - [ 99., 52., 48., 9801., 2704., 2304. ]
      - [ 67., 32., 34., 4489., 1024., 1156. ]
      - [ 21., 11., 13., 441., 121., 169. ]
      - [ 78., 42., 41., 6084., 1764., 1681. ]
      - [ 52., 24., 29., 2704., 576., 841. ]
      - [ 122., 69., 66., 14884., 4761., 4356. ]
      - [ 30., 15., 16., 900., 225., 256. ]
      - [ 27., 12., 15., 729., 144., 225. ]
      - [ 24., 8., 7., 576., 64., 49. ]
      - [ 73., 31., 28., 5329., 961., 784. ]
      - [ 15., 5., 7., 225., 25., 49. ]
      - [ 28., 13., 8., 784., 169., 64. ]
      - [ 74., 44., 42., 5476., 1936., 1764. ]
      - [ 26., 7., 9., 676., 49., 81. ]
      - [ 130., 73., 70., 16900., 5329., 4900. ]
      - [ 113., 62., 58., 12769., 3844., 3364. ]
      - [ 74., 30., 30., 5476., 900., 900. ]
      - [ 91., 44., 40., 8281., 1936., 1600. ]
      - [ 71., 32., 28., 5041., 1024., 784. ]
      - [ 74., 31., 28., 5476., 961., 784. ]
      - [ 107., 58., 54., 11449., 3364., 2916. ]
      - [ 23., 12., 16., 529., 144., 256. ]
      - [ 18., 5., 8., 324., 25., 64. ]
      - [ 19., 11., 9., 361., 121., 81. ]
      - [ 91., 48., 45., 8281., 2304., 2025. ]
      - [ 55., 29., 27., 3025., 841., 729. ]
      - [ 54., 22., 26., 2916., 484., 676. ]
      - [ 119., 72., 68., 14161., 5184., 4624. ]
      - [ 87., 43., 43., 7569., 1849., 1849. ]
      - [ 87., 49., 48., 7569., 2401., 2304. ]
      - [ 87., 47., 46., 7569., 2209., 2116. ]
      - [ 111., 64., 60., 12321., 4096., 3600. ]
      - [ 55., 30., 31., 3025., 900., 961. ]
      - [ 90., 47., 44., 8100., 2209., 1936. ]
      - [ 20., 7., 10., 400., 49., 100. ]
      - [ 73., 41., 40., 5329., 1681., 1600. ]
      - [ 83., 41., 38., 6889., 1681., 1444. ]
      - [ 72., 42., 41., 5184., 1764., 1681. ]
      - [ 43., 23., 34., 1849., 529., 1156. ]
      - [ 51., 22., 34., 2601., 484., 1156. ]
      - [ 13., 3., 5., 169., 9., 25. ]
      - [ 52., 24., 33., 2704., 576., 1089. ]
      - [ 15., 7., 5., 225., 49., 25. ]
      - [ 108., 59., 55., 11664., 3481., 3025. ]
      - [ 94., 51., 48., 8836., 2601., 2304. ]
      - [ 39., 16., 20., 1521., 256., 400. ]
      - [ 90., 49., 44., 8100., 2401., 1936. ]
      - [ 22., 13., 11., 484., 169., 121. ]
      - [ 97., 49., 47., 9409., 2401., 2209. ]
      - [ 53., 26., 33., 2809., 676., 1089. ]
      - [ 93., 56., 52., 8649., 3136., 2704. ]
      - [ 40., 17., 19., 1600., 289., 361. ]
      - [ 110., 63., 59., 12100., 3969., 3481. ]
      - [ 65., 25., 24., 4225., 625., 576. ]
      - [ 32., 13., 9., 1024., 169., 81. ]
      - [ 84., 47., 43., 7056., 2209., 1849. ]
      - [ 111., 66., 63., 12321., 4356., 3969. ]
      - [ 29., 14., 15., 841., 196., 225. ]
      - [ 70., 31., 27., 4900., 961., 729. ]
      - [ 74., 32., 29., 5476., 1024., 841. ]
      - [ 26., 10., 9., 676., 100., 81. ]
      - [ 27., 10., 13., 729., 100., 169. ]
      - [ 66., 31., 27., 4356., 961., 729. ]
      - [ 67., 32., 28., 4489., 1024., 784. ]
      - [ 28., 13., 14., 784., 169., 196. ]
      - [ 118., 63., 60., 13924., 3969., 3600. ]
      - [ 80., 46., 44., 6400., 2116., 1936. ]
      - [ 84., 46., 45., 7056., 2116., 2025. ]
      - [ 98., 54., 48., 9604., 2916., 2304. ]
      - [ 97., 53., 47., 9409., 2809., 2209. ]
      - [ 87., 42., 46., 7569., 1764., 2116. ]
      - [ 43., 22., 24., 1849., 484., 576. ]
      - [ 40., 20., 20., 1600., 400., 400. ]
      - [ 100., 54., 46., 10000., 2916., 2116. ]
      - [ 94., 42., 47., 8836., 1764., 2209. ]
      - [ 74., 35., 31., 5476., 1225., 961. ]
      - [ 96., 54., 49., 9216., 2916., 2401. ]
      - [ 108., 46., 49., 11664., 2116., 2401. ]
      - [ 91., 45., 51., 8281., 2025., 2601. ]
      - [ 139., 73., 77., 19321., 5329., 5929. ]
      - [ 143., 71., 70., 20449., 5041., 4900. ]
      - [ 70., 38., 37., 4900., 1444., 1369. ]
      - [ 120., 59., 57., 14400., 3481., 3249. ]
      - [ 66., 32., 31., 4356., 1024., 961. ]
      - [ 141., 64., 64., 19881., 4096., 4096. ]
      - [ 99., 44., 47., 9801., 1936., 2209. ]
      - [ 18., 8., 10., 324., 64., 100. ]
      - [ 92., 43., 39., 8464., 1849., 1521. ]
      - [ 113., 55., 61., 12769., 3025., 3721. ]
      - [ 171., 82., 90., 29241., 6724., 8100. ]
      - [ 132., 70., 73., 17424., 4900., 5329. ]
      - [ 146., 84., 88., 21316., 7056., 7744. ]
      - [ 35., 14., 18., 1225., 196., 324. ]
      - [ 166., 78., 89., 27556., 6084., 7921. ]
      - [ 122., 60., 63., 14884., 3600., 3969. ]
      - [ 30., 11., 15., 900., 121., 225. ]
      - [ 166., 79., 87., 27556., 6241., 7569. ]
      - [ 132., 68., 67., 17424., 4624., 4489. ]
      - [ 104., 50., 55., 10816., 2500., 3025. ]
      - [ 95., 52., 52., 9025., 2704., 2704. ]
      - [ 125., 73., 78., 15625., 5329., 6084. ]
      - [ 134., 61., 67., 17956., 3721., 4489. ]
      - [ 150., 77., 83., 22500., 5929., 6889. ]
      - [ 177., 91., 102., 31329., 8281., 10404. ]
      - [ 148., 72., 78., 21904., 5184., 6084. ]
      - [ 138., 75., 78., 19044., 5625., 6084. ]
      - [ 159., 88., 88., 25281., 7744., 7744. ]
      - [ 157., 75., 81., 24649., 5625., 6561. ]
      - [ 112., 50., 50., 12544., 2500., 2500. ]
      - [ 164., 84., 87., 26896., 7056., 7569. ]
      - [ 114., 61., 62., 12996., 3721., 3844. ]
      - [ 141., 76., 77., 19881., 5776., 5929. ]
      - [ 134., 65., 66., 17956., 4225., 4356. ]
      - [ 139., 74., 75., 19321., 5476., 5625. ]
      - [ 158., 75., 85., 24964., 5625., 7225. ]
      - [ 119., 57., 60., 14161., 3249., 3600. ]
      - [ 166., 85., 88., 27556., 7225., 7744. ]
      - [ 69., 31., 30., 4761., 961., 900. ]
      - [ 43., 15., 18., 1849., 225., 324. ]
